tree
version=v4
num_class=1
num_tree_per_iteration=1
label_index=0
max_feature_idx=17
objective=quantile
feature_names=Column_0 Column_1 Column_2 Column_3 Column_4 Column_5 Column_6 Column_7 Column_8 Column_9 Column_10 Column_11 Column_12 Column_13 Column_14 Column_15 Column_16 Column_17
feature_infos=[0:100] [0:100] [0:100] [0:100] [0:100] [0:100] [0.5:99.666666666666671] [4.809876942810596e-06:5.9700642095938035] [1.25:99.666666666666671] [0.49236596389639981:10.901070283845211] [2.7708333333333335:98.729166666666671] [1.2334043261987506:19.269776214640352] [0:23] [0:6] none [0:1] [-1:1] [-1:1]
tree_sizes=1469 1622 1888 1889 1871 2032 1970 2141 2393 2383 2465 2625 2486 2556 2716 2718 2724 2713 2737 2712 2728 2735 2727 2738 2742 2734 2748 2753 2748 2728 2740 2719 2744 2736 2754 2764 2755 2752 2751 2760 2736 2743 2753 2747 2766 2744 2767 2752 2761 2765 2759 2767 2770 2758 2768 2751 2752 2752 2758 2758 2751 2766 2768 2776 2745 2765 2753 2765 2750 2737 2768 2750 2774 2774 2778 2761 2782 2764 2745 2756 2764 2759 2772 2774 2773 2750 2730 2758 2757 2767 2800 2757 2777 2785 2762 2783 2765 2771 2776 2795 2765 2774 2772 2793 2767 2778 2779 2814 2787 2782 2817 2781 2788 2809 2799 2796 2781 2791 2796 2783 2767 2798 2778 2796 2744 2804 2799 2799 2776 2792

Tree=0
num_leaves=17
num_cat=0
split_feature=1 9 17 17 9 1 1 7 1 9 13 1 9 5 1 1
split_gain=204.563 55.8166 21.9837 10.2654 5.51532 4.1929 2.0341 1.91447 1.48624 1.43575 1.34525 7.77938 0.637784 1.59571 0.409756 0.141696
threshold=68.500000000000014 4.819857452740421 -0.12940952255126037 0.91597561503675351 2.2746961168986704 71.500000000000014 66.250000000000014 3.2659863237119597 26.750000000000004 1.7494587907695178 5.5000000000000009 28.500000000000004 2.9559502622372373 18.750000000000004 34.500000000000007 49.500000000000007
decision_type=2 2 2 2 2 2 2 2 2 2 2 2 2 2 2 2
left_child=1 3 14 6 -5 9 7 10 -4 -2 12 -12 -1 -14 -3 -15
right_child=5 2 8 4 -6 -7 -8 -9 -10 -11 11 -13 13 15 -16 -17
leaf_value=54.200000000000003 56.049999999999997 54.5 56.299999999999997 55.287500000000001 57.174999999999997 57.149999999999999 55.799999999999997 54.899999999999999 57.549999999999997 56.924999999999997 56.600000000000001 54.899999999999999 55.899999999999999 54.200000000000003 55.399999999999999 55.049999999999997
leaf_weight=442 29 20 26 22 24 515 23 20 97 20 20 77 21 61 21 21
leaf_count=442 29 20 26 22 24 515 23 20 97 20 20 77 21 61 21 21
internal_value=56.0001 55.9852 56.0116 55.9793 56.0022 56.0237 55.9778 55.9773 56.0222 56.0097 55.9768 55.9822 55.9758 55.9794 55.9799 55.9762
internal_weight=1459 895 164 731 46 564 685 662 123 49 642 97 545 103 41 82
internal_count=1459 895 164 731 46 564 685 662 123 49 642 97 545 103 41 82
is_linear=0
shrinkage=1


Tree=1
num_leaves=18
num_cat=0
split_feature=0 9 17 17 11 0 11 0 17 8 13 3 9 4 11 1 0
split_gain=202.865 49.949 21.1802 8.59136 8.57164 6.35139 3.18841 2.68269 2.61462 2.0077 2.03306 11.4079 0.847137 3.58305 0.625 0.419048 0.11346
threshold=67.500000000000014 4.6845526908467425 -0.12940952255126037 0.91597561503675351 2.9915339480471048 71.500000000000014 4.2684753709459207 26.750000000000004 -0.9159756150367534 67.041666666666671 5.5000000000000009 31.500000000000004 2.9559502622372373 15.500000000000002 3.6477296371283763 34.500000000000007 73.500000000000014
decision_type=2 2 2 2 2 2 2 2 2 2 2 2 2 2 2 2 2
left_child=1 3 15 9 -5 6 8 -4 -2 10 12 -12 -1 -14 -11 -3 -7
right_child=5 2 7 4 -6 16 -8 -9 -10 14 11 -13 13 -15 -16 -17 -18
leaf_value=-1.7975000000000003 0.19750000000000015 -1.425 0.085000000000000145 -0.76437500000000014 0.99125000000000019 0.39250000000000007 1.7443750000000002 1.4225000000000003 -0.052499999999999859 -0.2674999999999999 0.88249999999999995 -1.0449999999999999 -0.044999999999999929 -1.5100000000000002 -0.22500000000000001 -0.56999999999999995 1.1425000000000001
leaf_weight=428 24 20 24 20 22 33 20 93 22 20 20 75 26 87 20 22 483
leaf_count=428 24 20 24 20 22 33 20 93 22 20 20 75 26 87 20 22 483
internal_value=5.14051e-05 -0.0151368 0.0102201 -0.0207521 0.00119048 0.0229381 0.00833333 0.0211538 0.00108696 -0.0221154 -0.0227987 -0.0160526 -0.0239834 -0.0201327 -0.01125 -0.0202381 0.0248062
internal_weight=1459 877 159 718 42 582 66 117 46 676 636 95 541 113 40 42 516
internal_count=1459 877 159 718 42 582 66 117 46 676 636 95 541 113 40 42 516
is_linear=0
shrinkage=0.05


Tree=2
num_leaves=21
num_cat=0
split_feature=0 9 17 17 11 0 9 7 0 0 13 1 9 5 1 0 13 1 6 7
split_gain=197.44 53.141 21.9146 8.68998 7.87441 5.64283 3.90403 1.90507 1.82563 1.77366 1.39654 7.71489 0.635288 1.59571 0.409756 0.335925 0.550208 0.141696 0.0327586 0.0289352
threshold=70.500000000000014 4.819857452740421 -0.12940952255126037 0.91597561503675351 2.9915339480471048 65.500000000000014 1.3026778945542776 3.2659863237119597 26.750000000000004 71.500000000000014 5.5000000000000009 28.500000000000004 2.9559502622372373 18.750000000000004 34.500000000000007 76.500000000000014 1.5000000000000002 49.500000000000007 73.166666666666671 0.51639777948004528
decision_type=2 2 2 2 2 2 2 2 2 2 2 2 2 2 2 2 2 2 2 2
left_child=1 3 14 5 -5 7 -7 10 -4 -2 12 -12 -1 -14 -3 16 -11 -15 -18 -17
right_child=9 2 8 4 -6 6 -8 -9 -10 15 11 -13 13 17 -16 19 18 -19 -20 -21
leaf_value=-1.6201250000000003 0.071453125000000214 -1.3537500000000002 0.16825000000000012 -0.72615625000000006 1.0059062500000002 0.12337500000000007 -0.18737499999999976 -0.96231250000000002 1.3638750000000002 0.18537500000000018 0.52587499999999998 -0.99274999999999991 -0.092749999999999846 -1.6345000000000003 -0.54149999999999998 1.0103750000000002 2.0541250000000004 -0.82699999999999996 0.38537500000000019 1.2353750000000003
leaf_weight=433 24 20 22 20 26 21 39 20 100 26 20 74 21 61 21 32 20 21 38 400
leaf_count=433 24 20 22 20 26 21 39 20 100 26 20 74 21 61 21 32 20 21 38 400
internal_value=-0.000291295 -0.0143906 0.0115031 -0.0199735 0.00108696 -0.021338 -0.00666667 -0.0226923 0.0221311 0.0237037 -0.0231746 -0.0175532 -0.0241604 -0.0206311 -0.020122 0.0243217 0.0214286 -0.0237805 0.0241379 0.0248843
internal_weight=1459 919 163 756 46 710 60 650 122 540 630 94 536 103 41 516 84 82 58 432
internal_count=1459 919 163 756 46 710 60 650 122 540 630 94 536 103 41 516 84 82 58 432
is_linear=0
shrinkage=0.05


Tree=3
num_leaves=21
num_cat=0
split_feature=0 9 17 17 11 6 9 7 0 0 13 1 9 10 6 1 0 13 6 7
split_gain=194.63 52.0303 21.9146 8.41922 7.87441 6.21103 6.39077 1.90606 1.82563 1.77366 1.23709 6.57222 1.15871 0.547675 2.67065 0.409756 0.335925 0.550208 0.0327586 0.0289352
threshold=70.500000000000014 4.819857452740421 -0.12940952255126037 0.91597561503675351 2.9915339480471048 64.583333333333357 1.3026778945542776 3.2659863237119597 26.750000000000004 71.500000000000014 5.5000000000000009 28.500000000000004 2.2394304006462669 13.66666666666667 8.0833333333333339 34.500000000000007 76.500000000000014 1.5000000000000002 73.166666666666671 0.51639777948004528
decision_type=2 2 2 2 2 2 2 2 2 2 2 2 2 2 2 2 2 2 2 2
left_child=1 3 15 5 -5 7 -7 10 -4 -2 13 -12 -8 14 -1 -3 17 -11 -19 -18
right_child=9 2 8 4 -6 6 12 -9 -10 16 11 -13 -14 -15 -16 -17 19 18 -20 -21
leaf_value=-1.2141187500000001 0.067880468750000311 -1.2860625000000003 0.15983750000000008 -0.68984843749999991 0.95561093750000003 0.097206249999999633 -0.2391187500000001 -0.91419687499999991 1.2956812500000003 0.17610625000000013 0.49958124999999998 -0.9431124999999998 -0.074099999999999611 -1.6891187500000002 -0.26311249999999975 -0.51442500000000002 0.95985625000000008 1.9514187500000002 0.36610625000000002 1.1736062500000004
leaf_weight=91 24 20 22 20 26 25 38 20 100 26 20 70 20 402 24 21 32 20 38 400
leaf_count=91 24 20 22 20 26 25 38 20 100 26 20 70 20 402 24 21 32 20 38 400
internal_value=-0.000119945 -0.0141186 0.0115031 -0.0196429 0.00108696 -0.0209859 -0.00813253 -0.0226874 0.0221311 0.0237037 -0.0231878 -0.0177778 -0.0172414 -0.0241296 -0.021087 -0.020122 0.0243217 0.0214286 0.0241379 0.0248843
internal_weight=1459 919 163 756 46 710 83 627 122 540 607 90 58 517 115 41 516 84 58 432
internal_count=1459 919 163 756 46 710 83 627 122 540 607 90 58 517 115 41 516 84 58 432
is_linear=0
shrinkage=0.05


Tree=4
num_leaves=21
num_cat=0
split_feature=0 9 17 17 9 6 9 0 7 0 3 13 1 9 4 9 6 13 9 8
split_gain=185.275 54.6963 18.2839 8.31212 6.32675 6.07566 6.39077 2.94533 1.86623 1.82563 1.25488 1.16289 6.57222 1.15871 0.791381 3.06539 0.588 1.43919 0.4 0.159184
threshold=70.500000000000014 4.819857452740421 -0.12940952255126037 0.91597561503675351 2.4863262420317604 64.583333333333357 1.3026778945542776 72.500000000000014 3.2659863237119597 26.750000000000004 32.500000000000007 5.5000000000000009 28.500000000000004 2.2394304006462669 13.500000000000002 2.6443192398853479 78.375000000000014 1.5000000000000002 1.590685496313748 8.5208333333333339
decision_type=2 2 2 2 2 2 2 2 2 2 2 2 2 2 2 2 2 2 2 2
left_child=1 3 10 5 -5 8 -7 18 11 -4 -3 14 -13 -8 15 19 17 -9 -2 -1
right_child=7 2 9 4 -6 6 13 16 -10 -11 -12 12 -14 -15 -16 -17 -18 -19 -20 -21
leaf_value=-1.1659128125000002 0.030658320312500466 -1.1217593750000003 0.15184562499999998 -0.49285601562500009 0.99361164062500018 0.09234593749999967 -0.22716281249999995 0.21492593750000033 -0.86848703124999982 1.2308971875000001 -0.48870374999999983 0.47460218750000005 -0.89595687499999999 -0.070394999999999541 -1.6046628125000002 -0.02618171874999984 1.1149259375000005 0.49780093749999993 0.87128332031250055 -2.3046628125000002
leaf_weight=78 20 20 22 24 22 25 38 37 20 100 21 20 70 20 399 20 392 71 20 20
leaf_count=78 20 20 22 24 22 25 38 37 20 100 21 20 70 20 399 20 392 71 20 20
internal_value=-0.000188485 -0.0138466 0.0124233 -0.0195106 0.00108696 -0.0208451 -0.00813253 0.0230556 -0.0225279 0.0221311 -0.0164634 -0.0230231 -0.0177778 -0.0172414 -0.0239362 -0.020339 0.0241 0.0208333 0.01 -0.0239796
internal_weight=1459 919 163 756 46 710 83 540 627 122 41 607 90 58 517 118 500 108 40 98
internal_count=1459 919 163 756 46 710 83 540 627 122 41 607 90 58 517 118 500 108 40 98
is_linear=0
shrinkage=0.05


Tree=5
num_leaves=23
num_cat=0
split_feature=0 9 17 1 0 5 17 9 9 9 0 5 4 12 10 7 5 6 11 1 1 3
split_gain=169.476 57.7475 19.2429 8.56497 6.34558 2.9576 2.85587 3.32384 2.76383 3.31195 2.30908 2.03236 1.31047 0.997738 1.87005 0.723968 1.25488 0.427684 0.95224 0.316394 0.225 0.040991
threshold=70.500000000000014 4.819857452740421 -0.12940952255126037 62.500000000000007 73.500000000000014 81.500000000000014 -0.37940952255126015 2.9559502622372373 1.3026778945542776 2.3094010767569286 26.750000000000004 16.250000000000004 23.500000000000004 18.500000000000004 25.270833333333339 1.0327955589939151 14.250000000000002 78.375000000000014 3.400101211157891 66.250000000000014 31.500000000000004 52.500000000000007
decision_type=2 2 2 2 2 2 2 2 2 2 2 2 2 2 2 2 2 2 2 2 2 2
left_child=1 3 12 6 5 -2 -1 13 -5 19 -4 -9 -3 -8 15 -15 -17 18 -6 -10 -13 -12
right_child=4 2 10 8 17 -7 7 11 9 -11 21 20 -14 14 -16 16 -18 -19 -20 -21 -22 -23
leaf_value=-1.181257796875 0.34708945605468744 -1.0656714062500001 0.05675334374999999 0.08447864062500017 0.32291089062499978 -0.0059453593749999815 -1.4011590312499997 0.0013522109375003312 -0.19894217187499985 0.94393105859375026 1.0818523281250003 -1.2380859218750002 -0.61426856249999995 -1.30571321484375 -1.174429671875 -0.77011717187500039 -0.62442967187500009 1.0091796406250004 1.0565546406250002 -0.20469217187499958 -0.920960921875 1.6818523281250002
leaf_weight=328 36 20 22 23 33 21 98 31 23 21 91 20 23 63 32 21 20 375 59 21 20 20
leaf_count=328 36 20 22 23 33 21 98 31 23 21 91 20 23 63 32 21 20 375 59 21 20 20
internal_value=-0.000263899 -0.0134615 0.0122159 -0.0197295 0.0223282 0.00657895 -0.0217615 -0.0182787 -0.00511364 -0.0103846 0.0216165 -0.00880282 -0.0168605 -0.0211538 -0.0183824 -0.0216346 -0.0164634 0.0242505 0.0211957 -0.0181818 -0.01625 0.0245495
internal_weight=1421 897 176 721 524 57 633 305 88 65 133 71 43 234 136 104 41 467 92 44 40 111
internal_count=1421 897 176 721 524 57 633 305 88 65 133 71 43 234 136 104 41 467 92 44 40 111
is_linear=0
shrinkage=0.05


Tree=6
num_leaves=22
num_cat=0
split_feature=2 9 17 2 2 9 12 17 7 7 13 16 2 4 16 2 13 4 13 13 4
split_gain=158.502 62.6453 19.98 8.73892 4.20257 4.15385 4.53914 3.41482 4.38171 1.74113 2.03741 2.43774 1.51842 1.31047 1.12821 1.02876 2.19828 0.997475 0.720996 0.235965 0.0413043
threshold=71.500000000000014 4.819857452740421 -0.12940952255126037 62.500000000000007 74.500000000000014 1.3026778945542776 13.500000000000002 -0.37940952255126015 2.857738033248904 0.75277265272489435 4.5000000000000009 -0.60355339059327362 27.250000000000004 23.500000000000004 0.12940952255126059 78.500000000000014 1.5000000000000002 10.500000000000002 2.5000000000000004 5.5000000000000009 46.250000000000007
decision_type=2 2 2 2 2 2 2 2 2 2 2 2 2 2 2 2 2 2 2 2 2
left_child=1 3 13 7 14 -5 18 -1 9 19 11 17 -4 -3 -2 16 -6 -11 -7 -9 -14
right_child=4 2 12 5 15 6 -8 8 -10 10 -12 -13 20 -15 -16 -17 -18 -19 -20 -21 -22
leaf_value=-1.12902303203125 0.66669055187988313 -1.0123878359375003 0.25391567656249986 0.081879708593749892 0.09040909609375021 -0.20585756328125024 0.89673450566406288 -1.4657081882812499 0.0341647332031247 -0.70661131328125037 -0.070232829296875118 -0.21090573906249974 1.15275971171875 -0.58355513437499984 0.0072175335937497923 1.0087206585937505 0.42008315859374967 -1.7043717203124999 -0.083702327734374651 -0.88110107968749962 1.7066659617187505
leaf_weight=323 26 20 31 26 29 26 21 92 20 20 28 37 95 23 22 372 51 79 31 29 20
leaf_count=323 26 20 31 26 29 26 21 92 20 20 28 37 95 23 22 372 51 79 31 29 20
internal_value=-0.000263899 -0.0125679 0.0130952 -0.019194 0.0224 -0.00576923 -0.0115385 -0.0214172 -0.017623 -0.0192105 -0.0158537 -0.0183824 0.0219178 -0.0168605 0.00833333 0.0238938 0.01875 -0.0224747 -0.0188596 -0.0237603 0.0245652
internal_weight=1421 921 189 732 500 104 78 628 305 285 164 136 146 43 48 452 80 99 57 121 115
internal_count=1421 921 189 732 500 104 78 628 305 285 164 136 146 43 48 452 80 99 57 121 115
is_linear=0
shrinkage=0.05


Tree=7
num_leaves=24
num_cat=0
split_feature=0 9 1 12 12 12 0 15 7 4 7 4 0 5 12 7 15 4 0 11 1 5 9
split_gain=160.972 55.5017 10.0908 9.68813 8.54185 4.75016 4.20257 3.8806 3.61701 3.0211 2.85069 2.79148 2.61818 2.1164 1.75977 1.59337 2.51065 1.99696 0.831393 1.5759 0.345349 0.235965 0.034375
threshold=71.500000000000014 4.819857452740421 62.500000000000007 18.500000000000004 12.500000000000002 10.500000000000002 74.500000000000014 1.0000000180025095e-35 2.5819888974780865 27.250000000000004 0.98319208024985338 20.250000000000004 26.750000000000004 81.500000000000014 16.500000000000004 0.75277265272489435 1.0000000180025095e-35 13.500000000000002 79.250000000000014 3.400101211157891 36.750000000000007 32.500000000000007 2.1087839379518192
decision_type=2 2 2 2 2 2 2 2 2 2 2 2 2 2 2 2 2 2 2 2 2 2 2
left_child=1 2 8 4 -3 -4 13 10 14 -10 -7 -6 -5 -2 -1 21 17 -17 19 -8 -19 -16 -21
right_child=6 3 5 12 11 7 18 -9 9 -11 -12 -13 -14 -15 15 16 -18 20 -20 22 -22 -23 -24
leaf_value=-1.0589156304296876 0.31605267200195297 0.87012172613281258 -0.18416468511718698 0.041219892734374854 -0.86176844414062514 0.16366072316406247 0.13588864128906267 -0.079517211347656061 0.0085774926367186317 -1.4167361382421875 -0.025938204414062228 -0.77937737765625004 1.1826217261328125 -0.00092099933593772223 -1.3462023517187505 -0.35488226714843774 -0.054774121230468431 -1.6507052272656251 1.0802221256640625 0.37696025066406291 -0.84825678976562502 -1.1370460257031247 0.3622443131640628
leaf_weight=309 27 20 23 20 23 22 31 33 30 22 31 26 90 21 92 39 26 66 357 20 20 29 44
leaf_count=309 27 20 23 20 23 22 31 33 30 22 31 26 90 21 92 39 26 66 357 20 20 29 44
internal_value=-0.000439831 -0.0128393 -0.0188679 0.0121508 -0.00253623 -0.00481651 0.0224 0.000581395 -0.0212875 -0.00865385 0.00896226 -0.0137755 0.0213636 0.00833333 -0.0224182 -0.0194853 -0.0160596 -0.019 0.0238938 0.0197368 -0.0232558 -0.0237603 0.0242188
internal_weight=1421 921 742 179 69 109 500 86 633 52 53 49 110 48 581 272 151 125 452 95 86 121 64
internal_count=1421 921 742 179 69 109 500 86 633 52 53 49 110 48 581 272 151 125 452 95 86 121 64
is_linear=0
shrinkage=0.05


Tree=8
num_leaves=27
num_cat=0
split_feature=0 9 1 12 12 0 12 13 12 4 9 4 12 0 11 9 13 13 4 4 9 11 4 2 3 0
split_gain=154.487 54.5413 11.0428 9.68813 8.54185 4.37451 3.2727 3.8806 3.21772 2.79148 2.72779 3.56356 2.66886 2.61818 2.59479 2.52982 2.43503 2.26157 1.45745 0.495839 0.200169 0.175953 0.15122 0.144464 0.0467742 0.0448179
threshold=71.500000000000014 4.819857452740421 62.500000000000007 18.500000000000004 12.500000000000002 79.250000000000014 10.500000000000002 4.5000000000000009 16.500000000000004 20.250000000000004 1.502205292485572 13.500000000000002 18.500000000000004 26.750000000000004 2.2080402983079548 3.2051095570545454 5.5000000000000009 3.5000000000000004 80.500000000000014 45.500000000000007 1.2953674616048316 6.7049237981407588 18.750000000000004 75.250000000000014 62.500000000000007 80.500000000000014
decision_type=2 2 2 2 2 2 2 2 2 2 2 2 2 2 2 2 2 2 2 2 2 2 2 2 2 2
left_child=1 2 8 4 -3 15 -4 14 21 -6 20 12 -12 -5 -8 17 19 18 -2 22 -10 24 -13 -19 -1 -7
right_child=5 3 6 13 9 25 7 -9 10 -11 11 16 -14 -15 -16 -17 -18 23 -20 -21 -22 -23 -24 -25 -26 -27
leaf_value=-1.0196260989082031 -0.0059629181191407817 0.82661563982617214 -0.17495645086132755 0.039158898097656096 -0.81868002193359402 1.6542735193808598 0.15547768700585929 -0.075541350780273228 -1.1094636933125004 -0.74040850877343733 0.054359279412109988 -0.54752282566796873 -0.23936279588183568 1.1234906398261721 0.00039172915039085158 1.721793241995605 -0.55064767747363241 0.19391925662817366 0.12798344125585964 -0.72228145027734358 -0.94559555139062523 -1.6559698489082031 -1.6685484841328126 0.37896675609960939 -0.11836909793164062 1.0262110193808596
leaf_weight=290 24 20 23 20 23 21 21 33 79 26 23 20 35 90 32 41 32 24 25 20 32 20 62 29 20 336
leaf_count=290 24 20 23 20 23 21 21 33 79 26 23 20 35 90 32 41 32 24 25 20 32 20 62 29 20 336
internal_value=-0.000475018 -0.0126221 -0.0185984 0.0121508 -0.00253623 0.0219 -0.00389908 0.000581395 -0.0211295 -0.0137755 -0.0174092 -0.0138021 -0.00344828 0.0213636 0.00896226 0.0145105 -0.0182836 0.0102941 0.00255102 -0.0220588 -0.0236486 -0.0245455 -0.0237805 0.0174528 -0.0248387 0.0248599
internal_weight=1421 921 742 179 69 500 109 86 633 49 303 192 58 110 53 143 134 102 49 102 111 330 82 53 310 357
internal_count=1421 921 742 179 69 500 109 86 633 49 303 192 58 110 53 143 134 102 49 102 111 330 82 53 310 357
is_linear=0
shrinkage=0.05


Tree=9
num_leaves=27
num_cat=0
split_feature=0 7 17 0 4 0 5 5 7 6 13 7 12 13 8 11 0 10 7 11 11 5 6 4 6 0
split_gain=148.615 47.7079 26.0173 9.08882 8.14788 7.21715 4.07801 3.03573 3.01648 1.99134 3.78788 1.92123 1.79732 2.15534 6.3408 1.49184 1.37916 0.955967 2.76353 0.825 0.640244 0.166942 0.046633 0.041453 0.0327586 0.0314815
threshold=70.500000000000014 2.2304708023184303 -0.12940952255126037 18.250000000000004 66.250000000000014 80.500000000000014 76.500000000000014 12.500000000000002 1.0327955589841351 73.166666666666671 2.5000000000000004 1.5491933384830709 16.500000000000004 4.5000000000000009 29.312500000000004 4.0278692704671029 27.250000000000004 14.29166666666667 1.0327955589939151 3.127426594094056 3.9148546533075854 27.250000000000004 60.291666666666679 43.500000000000007 8.0833333333333339 32.500000000000007
decision_type=2 2 2 2 2 2 2 2 2 2 2 2 2 2 2 2 2 2 2 2 2 2 2 2 2 2
left_child=1 4 7 -4 12 6 -2 -3 -6 -8 19 20 22 17 -15 -12 -5 18 24 -11 -10 -18 -1 -19 -14 -9
right_child=5 2 3 16 8 -7 9 25 11 10 15 -13 13 14 -16 -17 21 23 -20 -21 -22 -23 -24 -25 -26 -27
leaf_value=-1.1549885439627929 1.6659228755739262 -0.65405070011611355 -0.049694417450097818 0.23720095319277343 0.036070129346386717 0.97490046841181632 -0.020135261711132557 -1.525753768572168 -0.2282451231313477 -0.0056647722131838666 0.33953179876337941 0.001984744010840167 -1.0688766540570318 0.12981698394638705 -0.71426272345156228 0.054082747906079476 0.92981610783486346 -1.4893380953640625 -0.15194981614536118 0.079172687161816677 -0.099171712942846574 1.2719855332007326 -0.079988543962792855 -0.95196269026347624 -1.0443588424359376 -0.45600842595346675
leaf_weight=277 50 25 21 20 32 336 28 20 21 20 40 20 38 23 37 26 101 97 31 24 20 20 20 20 20 34
leaf_count=277 50 25 21 20 32 336 28 20 21 20 40 20 38 23 37 26 101 97 31 24 20 20 20 20 20 34
internal_value=-0.000545391 -0.0129041 0.00612033 0.0175926 -0.0198933 0.0206107 0.012766 -0.0174051 -0.0061828 0.00833333 0.0113636 -0.0127049 -0.0221581 -0.0191729 -0.0108333 0.0189394 0.0221631 -0.0216019 -0.0176966 0 -0.0189024 0.0241736 -0.0248316 -0.0245726 -0.0241379 -0.0240741
internal_weight=1421 897 241 162 656 524 188 79 93 138 110 61 563 266 60 66 141 206 89 44 41 121 297 117 58 54
internal_count=1421 897 241 162 656 524 188 79 93 138 110 61 563 266 60 66 141 206 89 44 41 121 297 117 58 54
is_linear=0
shrinkage=0.05


Tree=10
num_leaves=28
num_cat=0
split_feature=0 9 17 10 0 0 7 9 12 11 9 4 17 10 15 7 17 17 10 4 1 11 9 0 7 0 3
split_gain=146.992 50.2934 16.4434 12.4508 4.32577 3.96813 3.86968 3.34908 3.89565 3.05312 5.03306 2.01623 1.74961 1.63666 5.08736 1.12597 1.91776 0.843182 0.632411 0.6 0.525 0.190476 0.171922 0.0882006 0.1 0.0464286 0.0408257
threshold=71.500000000000014 4.6845526908467425 -0.12940952255126037 64.145833333333357 80.500000000000014 26.750000000000004 3.1371430739899218 1.3026778945542776 12.500000000000002 3.621968943737718 1.6025547785267114 25.500000000000004 -0.37940952255126015 31.354166666666668 1.0000000180025095e-35 1.0327955589939151 0.78656609248549303 -0.70710678118654757 12.406250000000002 74.500000000000014 64.500000000000014 3.0571252006999976 1.4770978917522846 83.500000000000014 1.5491933384807217 55.750000000000007 52.500000000000007
decision_type=2 2 2 2 2 2 2 2 2 2 2 2 2 2 2 2 2 2 2 2 2 2 2 2 2 2 2
left_child=1 3 11 6 9 -4 12 -5 19 10 21 -3 25 14 15 22 18 -11 -17 20 -9 -2 -14 24 -6 -1 -7
right_child=4 2 5 7 23 26 -8 8 -10 17 -12 -13 13 -15 -16 16 -18 -19 -20 -21 -22 -23 -24 -25 -26 -27 -28
leaf_value=-1.1972391167646532 0.16724670385859605 -0.74504348583110847 0.025340905533134617 0.061650296188246759 0.20421794499122542 0.8333253024431202 -0.018252040859769992 -0.10562668109543855 0.043207949569887917 0.081344471250887201 -0.013782984696274526 -0.45558766203709244 -1.2468018017950784 -0.90436455575030239 0.15510578933527377 -0.4839710036584059 -0.0026690440880930313 1.5466750030604883 -1.538659476707676 -0.024455376047450985 -0.16583961956823787 0.22967559374122573 -1.4721907933441996 0.95421794499122548 0.35421794499122544 -0.099114116764653204 1.4254746436748267
leaf_weight=260 27 21 24 32 20 89 23 28 35 35 25 23 63 87 26 23 23 53 32 20 32 21 34 299 20 20 20
leaf_count=260 27 21 24 32 20 89 23 28 35 35 25 23 63 87 26 23 23 53 32 20 32 21 34 299 20 20 20
internal_value=-0.000300353 -0.0122131 0.0117232 -0.0179539 0.0215 0.0204887 -0.0211929 -0.00493197 -0.00891304 0.0147516 0.00719178 -0.0147727 -0.022007 -0.0192708 -0.016791 -0.0198571 -0.0153846 0.0210227 -0.0204545 -0.015 -0.0175 0.0166667 -0.0234536 0.024705 0.0225 -0.0248214 0.0245413
internal_weight=1415 915 177 738 500 133 591 147 115 161 73 44 568 288 201 175 78 88 55 80 60 48 97 339 40 280 109
internal_count=1415 915 177 738 500 133 591 147 115 161 73 44 568 288 201 175 78 88 55 80 60 48 97 339 40 280 109
is_linear=0
shrinkage=0.05


Tree=11
num_leaves=30
num_cat=0
split_feature=0 9 17 10 0 7 0 9 12 5 4 17 8 0 9 10 5 17 11 9 4 9 1 8 7 0 7 9 2
split_gain=140.475 48.7372 14.0659 11.5474 4.59992 4.06399 3.80769 3.75 3.8873 3.04996 2.51087 1.89645 1.98367 2.57228 2.01364 3.19621 2.8121 1.80712 1.38915 1.67462 0.651377 0.529101 0.456269 0.395238 0.163303 0.0882006 0.1 0.0364865 0.0256098
threshold=71.500000000000014 4.6845526908467425 -0.12940952255126037 63.187500000000007 80.500000000000014 2.9161833492503866 26.750000000000004 1.3026778945542776 12.500000000000002 74.500000000000014 31.500000000000004 -0.37940952255126015 30.875000000000004 22.500000000000004 1.4770978917522846 15.020833333333334 14.250000000000002 -0.9159756150367534 3.6355730365856624 1.729862492342124 74.500000000000014 1.9306145983230703 74.500000000000014 57.541666666666679 2.6394443859804726 83.500000000000014 1.5491933384807217 1.3026778945542776 16.250000000000004
decision_type=2 2 2 2 2 2 2 2 2 2 2 2 2 2 2 2 2 2 2 2 2 2 2 2 2 2 2 2 2
left_child=1 3 10 5 9 11 -4 -5 20 -2 -3 23 13 14 27 16 -16 22 19 -19 21 -9 -11 -1 -8 26 -6 -13 -17
right_child=4 2 6 7 25 -7 24 8 -10 17 -12 12 -14 -15 15 28 -18 18 -20 -21 -22 -23 -24 -25 -26 -27 -28 -29 -30
leaf_value=-1.1873771609264203 1.4859546543950739 -0.70779131153955288 0.024073860256477887 0.055317781378834856 0.194007047741664 -0.29365866633191262 0.64165903732096441 -0.13193964141673772 0.0047521123908017774 0.12049537846307389 -0.69633822198514006 -0.92980081022438665 -0.85914632796278712 -1.2448417841399846 -0.15971667255117411 -1.5870446154907591 0.034715979732593286 0.063730273116664557 0.051745056556951143 -0.013093835461460658 -0.023232607245078543 -0.15719088599636921 0.33282228070064834 -0.13737716092642033 0.91665903732096443 0.90650704774166402 0.33650704774166446 -1.1803169977380004 -1.4205556122153684
leaf_weight=249 48 23 24 35 20 32 20 36 38 20 21 54 84 28 28 21 25 20 27 23 20 27 23 21 89 299 20 20 20
leaf_count=249 48 23 24 35 20 32 20 36 38 20 21 54 84 28 28 21 25 20 27 23 20 27 23 21 89 299 20 20 20
internal_value=8.83392e-05 -0.0115574 0.0120056 -0.0172087 0.0214 -0.0204467 0.0201128 -0.00512821 -0.00929752 0.014441 -0.0125 -0.0214545 -0.0185714 -0.0158163 -0.0181548 -0.0132979 -0.00518868 0.00995575 0.005 -0.000581395 -0.0153614 -0.0178571 0.0180233 -0.0244444 0.0240826 0.024705 0.0225 -0.0243243 -0.0237805
internal_weight=1415 915 177 738 500 582 133 156 121 161 44 550 280 196 168 94 53 113 70 43 83 63 43 270 109 339 40 74 41
internal_count=1415 915 177 738 500 582 133 156 121 161 44 550 280 196 168 94 53 113 70 43 83 63 43 270 109 339 40 74 41
is_linear=0
shrinkage=0.05


Tree=12
num_leaves=28
num_cat=0
split_feature=0 9 17 10 0 0 9 16 17 9 8 13 9 10 13 4 9 16 0 13 13 6 8 17 9 6 4
split_gain=137.93 48.7372 14.0659 11.5474 5.03424 3.80769 3.75 3.8873 3.48383 3.41934 3.24259 6.80646 2.78692 3.55573 2.57267 2.51087 1.90162 1.12598 1.97342 1.03061 0.981818 0.612745 0.396429 0.101709 0.092335 0.0443617 0.0385057
threshold=71.500000000000014 4.6845526908467425 -0.12940952255126037 63.187500000000007 80.500000000000014 26.750000000000004 1.3026778945542776 1.0000000180025095e-35 -0.37940952255126015 3.4112114616891076 30.875000000000004 4.5000000000000009 2.310015987886477 13.895833333333334 3.5000000000000004 31.500000000000004 1.6025547785267114 -0.60355339059327362 10.500000000000002 3.5000000000000004 4.5000000000000009 68.541666666666671 57.541666666666679 -0.70710678118654757 5.5376517097822626 82.041666666666671 6.2500000000000009
decision_type=2 2 2 2 2 2 2 2 2 2 2 2 2 2 2 2 2 2 2 2 2 2 2 2 2 2 2
left_child=1 3 15 8 9 -4 -5 -8 22 14 11 12 17 -14 16 -3 -2 26 -19 21 -16 -9 -1 -6 -7 -25 -10
right_child=4 2 5 6 23 24 7 19 10 -11 -12 -13 13 -15 20 -17 -18 18 -20 -21 -22 -23 -24 25 -26 -27 -28
leaf_value=-1.1236958028800998 0.060543759460831487 -0.67240174596257529 0.022870167243653941 0.052551892309893239 0.32699419535458107 0.72629483545491602 0.0045145067712615726 -0.19449817173633158 -0.74410269075320701 1.4016217962863431 -0.81618901156464752 0.27719928438011382 0.027481833264745958 -1.2580051856547216 0.31021465775334217 -0.66152131088588328 -0.0091074914061337608 -0.0042713908703181152 -0.97977826409801139 -0.05269697009174408 0.15285959974251251 -0.037693903925531562 -0.13050830288009935 1.3946816953545813 0.845826085454916 0.86118169535458056 -1.407692384716221
leaf_weight=259 24 23 24 35 32 31 38 34 20 48 85 32 29 26 22 21 34 21 22 29 33 20 21 21 78 286 67
leaf_count=259 24 23 24 35 32 31 38 34 20 48 85 32 29 26 22 21 34 21 22 29 33 20 21 21 78 286 67
internal_value=-1.76678e-05 -0.0115574 0.0120056 -0.0172087 0.0211 0.0201128 -0.00512821 -0.00929752 -0.0204467 0.0138199 -0.0167219 -0.0134793 -0.0171622 -0.00772727 0.0090708 -0.0125 0.00172414 -0.0211538 -0.0145349 -0.0153614 0.0168182 -0.0194444 -0.0244643 0.0245575 0.0240826 0.0248371 -0.0244253
internal_weight=1415 915 177 738 500 133 156 121 582 161 302 217 185 55 113 44 58 130 43 83 55 54 280 339 109 307 87
internal_count=1415 915 177 738 500 133 156 121 582 161 302 217 185 55 113 44 58 130 43 83 55 54 280 339 109 307 87
is_linear=0
shrinkage=0.05


Tree=13
num_leaves=29
num_cat=0
split_feature=0 7 17 5 0 0 5 13 12 4 13 13 12 7 3 13 8 7 13 3 0 7 4 1 0 13 0 7
split_gain=129.165 45.9304 19.1746 11.1777 6.75306 6.50942 4.69432 3.91517 4.96169 3.90541 3.366 2.51654 2.40361 2.15891 1.81498 5.13799 1.56037 1.71664 1.21942 1.16667 0.715925 0.664407 0.576181 0.288854 0.179189 0.201353 0.156522 0.0291667
threshold=71.500000000000014 2.2949219304069088 -0.12940952255126037 68.500000000000014 81.500000000000014 26.750000000000004 73.500000000000014 5.5000000000000009 11.500000000000002 31.500000000000004 3.5000000000000004 2.5000000000000004 16.500000000000004 0.98319208024985338 29.250000000000004 4.5000000000000009 13.625000000000002 0.75277265272489435 4.5000000000000009 9.2500000000000018 18.250000000000004 2.6076809620829109 82.500000000000014 6.2500000000000009 86.250000000000014 4.5000000000000009 43.500000000000007 1.0954451150061186
decision_type=2 2 2 2 2 2 2 2 2 2 2 2 2 2 2 2 2 2 2 2 2 2 2 2 2 2 2 2
left_child=1 3 9 12 6 20 -2 8 11 -3 22 -5 -1 -10 15 16 17 23 -12 -19 -4 -7 -8 -14 25 27 -16 -6
right_child=4 2 5 7 24 21 10 -9 13 -11 18 -13 14 -15 26 -17 -18 19 -20 -21 -22 -23 -24 -25 -26 -27 -28 -29
leaf_value=-1.0218235127360946 1.356993406440288 -0.085578484797678919 -0.013928572586385003 -0.14239816136112041 0.17909136058685179 0.63966026299818601 0.018818594456539731 -0.1869789633680865 0.051549297694398359 -0.62844524534158919 0.28963374954715065 -0.024342118453018636 -0.70689755621554662 0.00013715479874925053 -0.93836504491485817 0.16619324837887142 -1.2956322156441797 -0.38140200061211582 0.14521661975538686 0.0078668934592908361 0.1092266588814713 0.84675743743217002 -0.012912408669350839 -0.98078935089311092 0.81812261058685187 0.35333198558685197 -0.45170924848641542 0.30333198558685198
leaf_weight=259 51 37 23 36 20 20 37 28 22 37 22 32 26 37 72 24 59 21 37 21 20 98 29 23 254 22 20 28
leaf_count=259 51 37 23 36 20 20 37 28 22 37 22 32 26 37 72 24 59 21 37 21 20 98 29 23 254 22 20 28
internal_value=-0.000335689 -0.0115027 0.00755319 -0.0180882 0.0201 0.017236 0.0122159 -0.00629032 -0.00255906 -0.0135135 0.007 -0.0117647 -0.0215714 0.00805085 -0.0182331 -0.0152299 -0.0186667 -0.0145604 0.015678 -0.00714286 0.000581395 0.0233051 -0.000757576 -0.0209184 0.0243827 0.0221429 -0.023913 0.0239583
internal_weight=1415 915 235 680 500 161 176 155 127 74 125 68 525 59 266 174 150 91 59 42 43 118 66 49 324 70 92 48
internal_count=1415 915 235 680 500 161 176 155 127 74 125 68 525 59 266 174 150 91 59 42 43 118 66 49 324 70 92 48
is_linear=0
shrinkage=0.05


Tree=14
num_leaves=31
num_cat=0
split_feature=0 7 17 1 0 0 5 4 11 12 13 12 13 5 17 13 13 13 11 5 5 11 0 7 4 0 11 2 5 1
split_gain=126.057 44.1049 19.1746 10.9966 6.75306 6.50942 4.69432 3.90541 3.4078 4.68972 3.366 2.86023 5.01032 6.11603 2.64872 1.21942 1.07037 0.861638 0.839683 0.83118 0.731745 1.30458 0.715925 0.664407 0.576181 0.179189 0.241429 0.0465157 0.0311321 0.03
threshold=71.500000000000014 2.2949219304069088 -0.12940952255126037 59.000000000000007 81.500000000000014 26.750000000000004 73.500000000000014 31.500000000000004 2.7153608231349811 12.500000000000002 3.5000000000000004 18.500000000000004 3.5000000000000004 14.250000000000002 -0.78656609248549325 4.5000000000000009 2.5000000000000004 2.5000000000000004 3.6355730365856624 68.500000000000014 20.250000000000004 3.6075604989557761 18.250000000000004 2.6076809620829109 82.500000000000014 86.250000000000014 3.4676297911134069 55.750000000000007 10.500000000000002 83.500000000000014
decision_type=2 2 2 2 2 2 2 2 2 2 2 2 2 2 2 2 2 2 2 2 2 2 2 2 2 2 2 2 2 2
left_child=1 3 7 11 6 22 -2 -3 9 -5 24 19 17 -14 16 -12 -10 -13 -18 20 21 28 -4 -7 -8 26 -6 -22 -1 -28
right_child=4 2 5 8 25 23 10 -9 14 -11 15 12 13 -15 -16 -17 18 -19 -20 -21 27 -23 -24 -25 -26 -27 29 -29 -30 -31
leaf_value=-0.44391623343768849 1.289143736118274 -0.081299560557794956 -0.013232143957065646 0.13484683280967857 0.17013679255750916 0.60767724984827665 0.017877664733712707 -0.59702298307450974 -0.13609391412855559 -0.067016905522304882 0.27515206206979315 -0.56916107356411982 -1.1346330124164024 0.089923834000232725 0.31368939055945672 0.13795578876761747 -0.16437585307865313 -0.90479099624067238 -0.015431662583832485 -0.071386325711614171 -0.96310415657013526 -0.2164198370992903 0.1037653259373979 0.80441956556056127 -0.012266788235883298 0.7772164800575091 0.35597319880750933 -0.12779796209928981 -1.6357323370992898 0.28349148005750885
leaf_weight=20 51 37 23 27 20 20 37 37 27 20 22 22 21 37 22 37 21 69 24 22 267 28 20 98 29 254 20 20 33 30
leaf_count=20 51 37 23 27 20 20 37 37 27 20 22 22 21 37 22 37 21 69 24 22 267 28 20 98 29 254 20 20 33 30
internal_value=-8.83392e-05 -0.0111202 0.00755319 -0.0175735 0.0201 0.017236 0.0122159 -0.0135135 -0.00514184 0.00585106 0.007 -0.0208256 -0.0149329 -0.00344828 -0.0106383 0.015678 -0.0152778 -0.0222527 -0.0105556 -0.0230769 -0.0236413 -0.0194444 0.000581395 0.0233051 -0.000757576 0.0243827 0.0221429 -0.0248258 -0.0240566 0.024
internal_weight=1415 915 235 680 500 161 176 74 141 47 125 539 149 58 94 59 72 91 45 390 368 81 43 118 66 324 70 287 53 50
internal_count=1415 915 235 680 500 161 176 74 141 47 125 539 149 58 94 59 72 91 45 390 368 81 43 118 66 324 70 287 53 50
is_linear=0
shrinkage=0.05


Tree=15
num_leaves=31
num_cat=0
split_feature=1 9 2 17 5 10 17 10 13 9 5 5 11 13 11 7 7 1 17 4 2 9 11 11 1 13 7 11 10 7
split_gain=119.129 40.415 11.2538 11.2004 8.74603 8.18578 4.45826 3.91663 7.50114 4.49143 5.39103 4.85952 3.76678 6.56511 4.07735 3.51815 3.84775 1.92397 1.36205 1.38581 1.01299 0.511933 1.87683 0.491497 0.426249 0.726285 0.136508 0.119118 0.0437876 0.0282609
threshold=67.500000000000014 4.819857452740421 83.500000000000014 -0.12940952255126037 73.500000000000014 62.520833333333336 -0.37940952255126015 32.041666666666679 4.5000000000000009 2.1022621881160402 21.250000000000004 11.500000000000002 1.9927404479149351 3.5000000000000004 3.8930424556495042 1.0327955589867419 1.8708286933816727 26.750000000000004 -0.5 80.500000000000014 54.500000000000007 1.3026778945553954 2.8539319431683867 3.8725107910496477 87.250000000000014 4.5000000000000009 0.98319208024487359 11.105509593914723 56.625000000000007 1.5192804185222322
decision_type=2 2 2 2 2 2 2 2 2 2 2 2 2 2 2 2 2 2 2 2 2 2 2 2 2 2 2 2 2 2
left_child=1 5 4 -3 -2 6 20 8 9 21 11 -11 -6 18 26 -7 23 -5 19 -14 28 -8 -23 -17 25 29 -15 -19 -1 -4
right_child=2 3 24 17 12 15 7 -9 -10 10 -12 -13 13 14 -16 16 -18 27 -20 -21 -22 22 -24 -25 -26 -27 -28 -29 -30 -31
leaf_value=-1.0225771292707833 1.242163644818097 -0.73043775639667285 0.20938983574213382 0.057587818816396741 -0.14030464178766239 0.0091413912915104586 -0.87197072132272846 -0.67068514711529392 0.26220804412687787 -1.1816033141942253 -1.3603431398807171 0.09075511296382538 -0.013818582077593435 0.24208322718830466 -0.010579266998093041 -0.20543671802235652 0.097990365740493246 0.67097593103253317 0.065415371055874166 0.012378115259230783 -0.066501813994325337 -0.098363797915613393 -1.2354789258059595 -0.1063444946800253 0.73835565605463394 0.73542369121088391 0.27501263652338398 0.82097593103253319 -0.14930648864578303 0.28688658183588384
leaf_weight=240 71 36 26 26 21 34 61 78 35 25 26 27 34 43 20 28 27 40 32 28 22 22 40 21 236 20 20 45 21 20
leaf_count=240 71 36 26 26 21 34 61 78 35 25 26 27 34 43 20 28 27 40 32 28 22 22 40 21 236 20 20 45 21 20
internal_value=-0.000298246 -0.0121194 0.0173818 0.0117347 0.00994424 -0.0170792 -0.0193886 -0.0152866 -0.0120763 -0.015796 -0.00641026 0.00288462 0.00454545 0.0069209 0.0171687 -0.00454545 -0.0105263 0.0195946 -0.00212766 -0.00645161 -0.0239399 -0.021748 -0.0185484 -0.0188776 0.0240066 0.0204545 0.0234127 0.0232353 -0.0248084 0.023913
internal_weight=1425 854 571 147 269 707 597 314 236 201 78 52 198 177 83 110 76 111 94 62 283 123 62 49 302 66 63 85 261 46
internal_count=1425 854 571 147 269 707 597 314 236 201 78 52 198 177 83 110 76 111 94 62 283 123 62 49 302 66 63 85 261 46
is_linear=0
shrinkage=0.05


Tree=16
num_leaves=31
num_cat=0
split_feature=0 7 0 12 0 13 11 4 13 11 10 7 0 13 8 12 13 10 1 7 10 7 10 13 10 11 11 8 6 0
split_gain=121.468 35.8015 11.4856 11.3967 7.52691 6.89604 5.2756 5.18435 4.59701 6.40701 3.77533 3.38203 2.5 2.12353 2.59027 2.04335 4.94412 4.60024 2.52083 1.75204 2.31746 1.36675 1.17335 1.51658 1.50955 2.62545 1.08995 0.688095 0.344118 0.326224
threshold=70.500000000000014 2.2949219304069088 59.000000000000007 18.500000000000004 83.500000000000014 1.0000000180025095e-35 5.5353762609390564 31.500000000000004 5.5000000000000009 2.6957759288743914 14.614583333333336 1.549193338478664 48.250000000000007 3.5000000000000004 74.541666666666671 18.500000000000004 3.5000000000000004 22.229166666666668 12.500000000000002 1.5491933384771641 80.375000000000014 1.0327955589835927 58.010416666666679 3.5000000000000004 14.29166666666667 3.4235963507346425 3.4439085556315341 67.041666666666671 8.7083333333333339 87.250000000000014
decision_type=2 2 2 2 2 2 2 2 2 2 2 2 2 2 2 2 2 2 2 2 2 2 2 2 2 2 2 2 2 2
left_child=1 2 15 5 6 -3 13 -7 9 -4 -5 27 -9 19 -15 22 28 18 -18 20 -2 -16 24 -24 25 -1 -22 -11 -17 -6
right_child=4 3 8 10 29 7 -8 12 -10 11 -12 -13 -14 14 21 16 17 -19 -20 -21 26 -23 23 -25 -26 -27 -28 -29 -30 -31
leaf_value=-1.2268485321696141 0.053944629050029037 -1.1108602435768387 0.050372106147093379 0.034550072299968093 0.25646147676752734 0.35202672651662043 1.1704198724071482 -1.0879350116990611 -0.20665082815680622 -0.055804684784883388 0.78590369698090612 0.067318051948308089 0.21485144045232296 -0.0067458232246131906 0.25451595195490828 -0.45052777881026512 -0.49860863712796938 0.66146971996533499 -1.0509115366479944 0.074946950133843157 -0.04386958298186272 0.067272486367990686 -0.061643054838493687 -0.18023940009110648 -0.92144827280724406 -0.1044699887807866 -0.0081123353308477416 -0.12486047580643458 -0.84291179747028555 0.7014378732519021
leaf_weight=50 24 32 31 39 61 38 59 20 20 20 75 22 20 20 34 20 24 20 24 20 20 31 23 34 270 22 21 28 65 238
leaf_count=50 24 32 31 39 61 38 59 20 20 20 75 22 20 20 34 20 24 20 24 20 20 31 23 34 270 22 21 28 65 238
internal_value=-8.77193e-05 -0.0112876 -0.0170505 0.00602679 0.0189394 -0.00545455 0.0121179 0.0025641 -0.00309917 0.00123762 0.0171053 -0.00714286 -0.01 0.00764706 0.0132353 -0.0201087 -0.0151961 -0.00514706 -0.0135417 0.00205882 -0.00192308 0.0180769 -0.0219925 -0.0153509 -0.0230994 -0.0166667 -0.00914634 -0.0145833 -0.0232353 0.0241639
internal_weight=1425 897 673 224 528 110 229 78 121 101 114 70 40 170 85 552 153 68 48 85 65 65 399 57 342 72 41 48 85 299
internal_count=1425 897 673 224 528 110 229 78 121 101 114 70 40 170 85 552 153 68 48 85 65 65 399 57 342 72 41 48 85 299
is_linear=0
shrinkage=0.05


Tree=17
num_leaves=31
num_cat=0
split_feature=1 9 17 17 9 1 7 15 2 11 17 6 12 2 15 9 10 7 5 15 11 11 12 1 17 8 2 3 2 7
split_gain=112.641 41.0907 11.4804 11.3105 8.80582 7.57216 6.41283 6.13857 5.40185 4.67513 3.58983 2.80139 2.70453 4.0367 9.93167 3.12848 5.17241 2.27019 1.88225 1.75363 1.71163 1.26604 0.965567 0.962791 0.873693 1.73636 0.622294 0.151807 0.1 0.0386364
threshold=72.500000000000014 4.819857452740421 -0.12940952255126037 0.78656609248549303 1.502205292485572 59.000000000000007 0.98319208024985338 1.0000000180025095e-35 83.500000000000014 5.5353762609390564 -0.9159756150367534 29.833333333333339 16.500000000000004 27.250000000000004 1.0000000180025095e-35 2.310015987886477 15.312500000000002 1.5491933384807217 63.500000000000007 1.0000000180025095e-35 2.3630508962359058 3.7703553824732317 9.5000000000000018 33.500000000000007 -0.5 91.375000000000014 75.250000000000014 5.5000000000000009 77.750000000000014 2.7568097504206563
decision_type=2 2 2 2 2 2 2 2 2 2 2 2 2 2 2 2 2 2 2 2 2 2 2 2 2 2 2 2 2 2
left_child=1 3 -3 5 -5 12 7 20 9 10 26 -4 18 14 15 27 -17 22 -1 -20 -7 -8 -12 -6 25 -10 -2 -14 -24 -13
right_child=8 2 11 4 23 6 21 -9 24 -11 17 29 13 -15 -16 16 -18 -19 19 -21 -22 -23 28 -25 -26 -27 -28 -29 -30 -31
leaf_value=-0.9253758591668817 0.16993696864356062 -0.63837285639799723 0.036821499356112501 -0.52807405687331188 0.032735827775366037 0.12598172450242481 -0.16382946931741299 -0.1329521185370485 0.17972066708930648 1.1215344689568347 -0.016368243442934728 0.66305048663917465 -0.59535398195984113 -0.68733311882268433 0.2185225371191436 0.062182924759144248 -1.0699775716521143 0.071199602627150679 -0.015501471014709268 -0.21750920517878625 0.01986517153210823 -0.059084221792444151 0.063978499262571736 1.0704078317608035 0.76636597958930686 0.31636597958930679 0.27205910901613278 -1.1587140151322177 -0.0012765302764302434 0.77764263104507592
leaf_weight=240 21 36 39 31 20 23 36 23 34 54 29 20 20 84 35 29 25 22 35 26 20 38 20 23 219 49 23 63 20 68
leaf_count=240 21 36 39 31 20 23 36 23 34 54 29 20 20 84 35 29 25 22 35 26 20 38 20 23 219 49 23 63 20 68
internal_value=-0.000192982 -0.0103854 0.0124233 -0.0152075 0.00337838 -0.0171808 -0.00678571 0.00454545 0.0191955 0.0125661 0.00759259 0.0194882 -0.0197935 -0.0160156 -0.0116279 -0.0177007 -0.00833333 0.00192308 -0.0230066 -0.0151639 0.0156977 -0.0168919 -0.00253623 0.0180233 0.0233444 0.0189759 0.0193182 -0.0237952 0.0025 0.0244318
internal_weight=1425 934 163 771 74 697 140 66 491 189 135 127 557 256 172 137 54 91 301 61 43 74 69 43 302 83 44 83 40 88
internal_count=1425 934 163 771 74 697 140 66 491 189 135 127 557 256 172 137 54 91 301 61 43 74 69 43 302 83 44 83 40 88
is_linear=0
shrinkage=0.05


Tree=18
num_leaves=31
num_cat=0
split_feature=0 9 16 0 0 11 12 12 12 11 9 10 13 13 13 1 12 9 0 1 12 3 4 12 11 0 9 9 0 1
split_gain=112.46 37.4392 8.68269 7.35657 6.51828 5.2756 4.72848 3.73539 3.65177 7.19252 3.60791 6.04141 3.89455 2.59412 2.31658 2.30364 2.12816 1.41054 1.37618 1.17774 1.02621 0.993941 1.47277 0.944721 1.58169 0.731539 1.01534 0.681818 0.462697 0.681818
threshold=70.500000000000014 4.819857452740421 -0.37940952255126059 36.250000000000007 83.500000000000014 5.5353762609390564 16.500000000000004 17.500000000000004 22.500000000000004 2.5867204936970221 1.2953674616048316 15.020833333333334 5.5000000000000009 3.5000000000000004 4.5000000000000009 45.500000000000007 18.500000000000004 1.7056057308467791 50.500000000000007 75.250000000000014 18.500000000000004 76.500000000000014 85.500000000000014 11.500000000000002 4.1250548919538561 87.250000000000014 2.0597146021786439 3.3154825052197814 45.500000000000007 56.500000000000007
decision_type=2 2 2 2 2 2 2 2 2 2 2 2 2 2 2 2 2 2 2 2 2 2 2 2 2 2 2 2 2 2
left_child=1 2 6 7 5 13 28 -3 9 -4 -8 16 15 21 -15 -13 -12 -11 27 -16 -5 -2 -23 24 -20 26 -6 -19 -1 -30
right_child=4 3 8 20 25 -7 10 -9 -10 17 11 12 -14 14 19 -17 -18 18 23 -21 -22 22 -24 -25 -26 -27 -28 -29 29 -31
leaf_value=-0.97910706620853749 0.076310914290218801 -0.78992640107809697 0.043191601741608923 0.42905864774121416 0.11098783832468513 1.0558221553389486 -0.71636657715121255 0.040635649526181442 0.037660841414903959 -0.17643489484798655 0.066688712456989485 -1.0273382407308709 -0.12516732096447464 0.23358348745850571 -0.0076259710001657767 -0.17109440555111882 -0.60366720715939182 -0.49872924857386458 -0.0035493242369385673 0.22364040105482774 0.73348809932960679 -0.023490971518230631 0.042371075488790669 -0.0073208440543243826 -0.091830035066080035 0.63901643060984137 1.1270207782268795 -0.10828530863914754 -0.098533091933239628 -0.18967068082211364
leaf_weight=193 26 26 33 25 31 59 70 38 37 26 28 103 37 30 26 20 30 24 24 29 62 32 27 35 22 238 30 20 20 24
leaf_count=193 26 26 33 25 31 59 70 38 37 26 28 103 37 30 26 20 30 24 24 29 62 32 27 35 22 238 30 20 20 24
internal_value=0.000157895 -0.0106187 -0.0152145 0.0120861 0.0184659 0.0121179 -0.0187143 -0.00078125 -0.00690045 -0.00978261 -0.0144097 -0.0112385 -0.01625 0.00764706 0.0138235 -0.0205285 0.00258621 -0.014404 -0.0122 0.00772727 0.0215517 0.00147059 -0.00211864 -0.00833333 -0.0130435 0.0233278 0.0184426 -0.0193182 -0.0239451 -0.0193182
internal_weight=1425 897 746 151 528 229 525 64 221 184 288 218 160 170 85 123 58 151 125 55 87 85 59 81 46 299 61 44 237 44
internal_count=1425 897 746 151 528 229 525 64 221 184 288 218 160 170 85 123 58 151 125 55 87 85 59 81 46 299 61 44 237 44
is_linear=0
shrinkage=0.05


Tree=19
num_leaves=31
num_cat=0
split_feature=1 7 17 17 13 11 1 4 10 12 2 13 4 11 13 12 10 7 5 5 4 1 4 11 5 1 13 4 12 1
split_gain=102.734 32.7494 17.1094 11.2247 6.96337 7.12463 6.70738 5.42741 4.30277 3.75888 4.00869 9.31394 3.74625 3.34125 3.30706 5.16974 2.55144 3.65023 2.32403 1.84864 1.56385 1.22736 6.2451 0.858516 0.858094 1.28382 0.763434 0.626087 0.474725 0.27
threshold=67.500000000000014 2.2304708023184303 0.1294095225512602 -0.5 3.5000000000000004 1.9927404479149351 50.500000000000007 25.500000000000004 16.760416666666671 16.500000000000004 27.250000000000004 4.5000000000000009 86.750000000000014 4.1727846157540833 5.5000000000000009 12.500000000000002 16.416666666666668 1.0327955589939151 6.2500000000000009 67.500000000000014 8.5000000000000018 83.500000000000014 79.750000000000014 2.5867204936970221 91.750000000000014 87.250000000000014 3.5000000000000004 52.500000000000007 9.5000000000000018 43.500000000000007
decision_type=2 2 2 2 2 2 2 2 2 2 2 2 2 2 2 2 2 2 2 2 2 2 2 2 2 2 2 2 2 2
left_child=1 6 7 4 12 -6 9 20 18 27 11 16 28 24 15 26 17 23 -4 -17 -3 22 -5 -11 -7 -26 -8 -1 -2 -9
right_child=3 2 8 21 5 13 14 29 -10 10 -12 -13 -14 -15 -16 19 -18 -19 -20 -21 -22 -23 -24 -25 25 -27 -28 -29 -30 -31
leaf_value=-0.88015171289811078 -0.011691071430736956 -0.11374782067656392 -0.59918385012965969 1.0028998969774372 -0.12592321406018778 0.22973561054072678 -0.10632212283571221 -1.1911393142765589 0.67010231018909683 -0.62977805243900675 -0.62782091556028075 0.21385477631141009 0.041528973359546133 -0.0070083452902267142 -0.16134290561681264 -0.0053705431289934324 -0.98838211017984112 0.02128932569284139 0.11189265364340671 0.042866341915290464 0.38785669229309117 0.72109685907934917 -0.010093859123318795 -0.68854417589554484 0.22160838204220534 0.20213849970434838 -0.034655813655210109 -0.079966635717530113 -0.017049322890989239 -0.11116926043606626
leaf_weight=207 26 22 20 78 21 67 38 30 81 39 76 29 22 22 22 23 61 30 29 24 20 220 24 24 28 33 36 23 30 20
leaf_count=207 26 22 20 78 21 67 38 30 81 39 76 29 22 22 22 23 61 30 29 24 20 220 24 24 28 33 36 23 30 20
internal_value=8.77193e-05 -0.0108899 0.00563063 0.0165061 0.00853414 0.0141813 -0.016693 -0.0108696 0.0173077 -0.0194785 -0.0153475 -0.0113388 -0.00384615 0.018 -0.00716783 -0.00392562 -0.0162338 -0.0110215 0.00561224 0.00904255 0.00238095 0.0226708 0.0181373 -0.0178571 0.0210938 0.0168033 -0.0121622 -0.0241304 -0.0107143 -0.022
internal_weight=1425 854 222 571 249 171 632 92 130 489 259 183 78 150 143 121 154 93 49 47 42 322 102 63 128 61 74 230 56 50
internal_count=1425 854 222 571 249 171 632 92 130 489 259 183 78 150 143 121 154 93 49 47 42 322 102 63 128 61 74 230 56 50
is_linear=0
shrinkage=0.05


Tree=20
num_leaves=31
num_cat=0
split_feature=0 7 17 0 0 16 0 5 9 13 12 4 12 1 3 4 12 9 13 2 0 7 0 9 11 5 12 1 9 0
split_gain=92.595 32.0373 17.122 9.73859 7.94357 7.38225 5.44463 4.66118 5.79138 3.73274 5.40441 3.64928 3.57039 3.54426 4.38891 3.25873 1.96215 1.98679 1.51216 4.13878 1.44144 1.27811 1.2749 0.938858 2.95567 0.862411 1.52797 0.579179 0.506904 0.245455
threshold=71.500000000000014 2.404853701500715 -0.12940952255126037 50.500000000000007 87.250000000000014 0.37940952255126054 28.500000000000004 20.250000000000004 1.4354811251273565 4.5000000000000009 11.500000000000002 27.250000000000004 8.5000000000000018 17.500000000000004 6.2500000000000009 73.500000000000014 9.5000000000000018 2.3094010767569286 5.5000000000000009 32.500000000000007 45.500000000000007 3.0822070014885328 61.250000000000007 2.3915887961145788 2.6957759288743914 74.500000000000014 12.500000000000002 39.250000000000007 1.1559293803580535 42.750000000000007
decision_type=2 2 2 2 2 2 2 2 2 2 2 2 2 2 2 2 2 2 2 2 2 2 2 2 2 2 2 2 2 2
left_child=1 3 11 7 5 25 21 8 28 10 15 -3 -7 14 -10 -5 -14 -18 20 -20 -9 -4 -11 24 -12 -2 -27 -8 -1 -13
right_child=4 2 6 9 -6 12 27 18 13 22 23 29 16 -15 -16 -17 17 -19 19 -21 -22 -23 -24 -25 -26 26 -28 -29 -30 -31
leaf_value=-0.57930053228909273 0.95770384780815165 0.029491256680004341 -0.11012894146245192 -0.12356601292818753 0.61004201612538156 0.077074147144428562 0.25210251293391439 -0.83614412725320519 -0.06001475742807081 -0.32063843997297498 0.034152940667823019 -1.0648069488784628 -0.02478786027724951 -0.81848912048760158 0.096330671827014852 0.0037401725550301637 0.21952362436210607 -0.017776617931519214 0.056135554750118645 -0.17151961707422353 -0.035860773432825968 0.19700267495842461 -0.032923022972449444 0.039124846641449912 -0.099205657840469294 0.20097160047505014 0.042773960965219973 0.74760886715094665 -0.69807132069010491 -0.097312580185387007
leaf_weight=57 72 31 20 31 226 38 31 240 27 22 29 24 39 23 32 20 26 20 21 49 21 23 36 29 27 44 27 79 24 20
leaf_count=57 72 31 20 31 226 38 31 240 27 22 29 24 39 23 32 20 26 20 21 49 21 23 36 29 27 44 27 79 24 20
internal_value=0.000390625 -0.00900655 0.00723684 -0.0143895 0.0178862 0.0120301 0.0168301 -0.0181174 -0.0111963 -0.00489691 -0.000367647 -0.0123333 0.00304878 -0.00182927 0.00466102 -0.0132353 -0.00264706 0.00434783 -0.0215257 -0.015 -0.0232759 0.00174419 -0.0155172 0.00735294 0.00357143 0.0197552 0.0158451 0.0227273 -0.020679 -0.0215909
internal_weight=1408 916 228 688 492 266 153 494 163 194 136 75 123 82 59 51 85 46 331 70 261 43 58 85 56 143 71 110 81 44
internal_count=1408 916 228 688 492 266 153 494 163 194 136 75 123 82 59 51 85 46 331 70 261 43 58 85 56 143 71 110 81 44
is_linear=0
shrinkage=0.05


Tree=21
num_leaves=31
num_cat=0
split_feature=0 7 17 17 8 13 10 0 10 12 7 4 17 8 13 13 8 0 12 2 0 13 16 1 12 0 10 7 6 8
split_gain=86.3068 30.3654 18.257 9.1648 6.69148 6.88752 6.84754 5.98432 5.2626 4.80343 4.62553 4.47169 3.10779 2.68935 2.64839 2.59156 3.81111 2.57857 2.35186 1.78416 1.75819 1.64135 1.47262 1.40854 1.20756 1.12467 0.843306 1.04142 0.978495 0.568116
threshold=70.500000000000014 2.2304708023184303 0.1294095225512602 -0.37940952255126015 46.437500000000007 4.5000000000000009 15.020833333333334 87.250000000000014 16.760416666666671 11.500000000000002 0.75277265272489435 27.250000000000004 -0.9159756150367534 78.916666666666671 4.5000000000000009 5.5000000000000009 33.187500000000007 7.2500000000000009 9.5000000000000018 73.500000000000014 21.250000000000004 1.0000000180025095e-35 -0.37940952255126059 2.2500000000000004 8.5000000000000018 61.250000000000007 62.520833333333336 0.98319208024985338 55.083333333333336 93.041666666666671
decision_type=2 2 2 2 2 2 2 2 2 2 2 2 2 2 2 2 2 2 2 2 2 2 2 2 2 2 2 2 2 2
left_child=1 4 11 7 6 9 10 12 -4 -6 23 20 19 -14 18 -8 -17 -12 24 -2 -3 22 -5 -1 -15 -7 28 -28 -11 -9
right_child=3 2 8 21 5 25 15 29 -10 26 17 -13 13 14 -16 16 -18 -19 -20 -21 -22 -23 -24 -25 -26 -27 27 -29 -30 -31
leaf_value=-0.14214454310367702 0.021582454746097393 -0.060274531358500208 0.040067856775876369 0.041863396305462791 -0.096817107080011414 -0.14541659067793286 -0.8291181228999932 0.11152947391286219 0.60146517195697635 0.0084564873719571668 -0.057014019556667253 -0.71386686516564879 -0.022960603723529083 0.036903507313295593 -0.072133339905484914 0.25184201838547315 -0.22519026631508154 0.097107660730410758 0.19605370499700747 0.1865305945489297 0.37060209506098191 0.82953991531911275 0.52647741531911263 -0.85554518020197667 -0.0071829135811988468 -0.030002564878139282 0.039015377786134668 0.0085219515284304503 -0.011894629703340343 0.30331735274604343
leaf_weight=22 22 20 50 34 39 44 250 20 97 31 35 48 22 23 20 20 36 28 24 40 21 214 24 50 24 27 24 29 21 49
leaf_count=22 22 20 50 34 39 44 250 20 97 31 35 48 22 23 20 20 36 28 24 40 21 214 24 50 24 27 24 29 21 49
internal_value=0.000390625 -0.00902466 0.00635593 0.0166667 -0.0145579 -0.00732558 -0.0180839 0.00963115 0.0171769 -0.00104167 -0.0087037 -0.0115169 0.00471429 -0.000221239 0.00357143 -0.0222222 -0.0125 0.00119048 0.00809859 0.0137097 0.000609756 0.0229779 0.0155172 -0.0173611 0.00159574 -0.0200704 0.00452381 0.00896226 0 0.0221014
internal_weight=1408 892 236 516 656 215 441 244 147 144 135 89 175 113 91 306 56 63 71 62 41 272 58 72 47 71 105 53 52 69
internal_count=1408 892 236 516 656 215 441 244 147 144 135 89 175 113 91 306 56 63 71 62 41 272 58 72 47 71 105 53 52 69
is_linear=0
shrinkage=0.05


Tree=22
num_leaves=31
num_cat=0
split_feature=0 9 17 17 0 17 9 8 10 13 13 9 13 8 10 12 4 17 9 11 13 9 9 16 10 4 0 4 8 0
split_gain=83.8888 30.7506 13.111 7.95165 7.73319 6.86214 7.04764 4.10006 5.37138 6.22546 4.32241 3.73351 3.67603 6.07658 3.32606 3.31219 3.23336 2.44187 2.15385 2.43376 2.05382 1.64109 2.6101 1.58438 1.52111 1.40369 1.39977 1.2302 1.225 1.21935
threshold=66.250000000000014 4.819857452740421 -0.37940952255126015 0.1294095225512602 87.250000000000014 0.78656609248549303 1.4354811251273565 46.437500000000007 15.677083333333334 3.5000000000000004 4.5000000000000009 1.6025547785267114 5.5000000000000009 32.708333333333336 16.760416666666671 11.500000000000002 80.500000000000014 -0.9159756150367534 2.7344602259427373 3.513302855133861 1.0000000180025095e-35 1.9128750374993169 2.3667118026845482 -0.37940952255126059 30.979166666666668 3.5000000000000004 8.5000000000000018 75.250000000000014 77.104166666666671 60.500000000000007
decision_type=2 2 2 2 2 2 2 2 2 2 2 2 2 2 2 2 2 2 2 2 2 2 2 2 2 2 2 2 2 2
left_child=1 5 4 24 11 7 -7 8 9 26 15 17 -10 -14 -5 -9 -13 27 19 -17 23 -18 -23 28 -3 -11 -1 -2 -4 -12
right_child=2 3 20 14 -6 6 -8 10 12 25 29 16 13 -15 -16 18 21 -19 -20 -21 -22 22 -24 -25 -26 -27 -28 -29 -30 -31
leaf_value=-0.024325080817030199 0.037396599624149117 0.027944750315322866 0.13047466256876314 0.047177447442787471 0.16437404768181027 -0.33730133695955627 0.25972702432783806 -0.089587109191789527 -0.83336454630777301 -0.16189721477758498 -0.23882769372414075 -0.02552022171748014 0.63776315883905998 -0.25603034872051894 0.53343296994357636 -0.00031857338869336618 -0.015006544743232909 -0.012192190430417327 -0.044586777011750379 0.0312411618573913 0.78806291955315688 0.17755489328850907 -0.004651454681606282 0.5001535445531573 -0.9274407832423327 -1.114676508657799 0.11336488673087253 0.16621535514780561 0.00016800321568997135 -0.068482640729208386
leaf_weight=42 28 25 20 35 69 24 35 30 243 22 42 39 21 40 75 31 28 31 28 32 224 26 29 24 20 54 20 31 20 20
leaf_count=42 28 25 20 35 69 24 35 30 243 22 42 39 21 40 75 31 28 31 28 32 224 26 29 24 20 54 20 31 20 20
internal_value=0.000426136 -0.00962455 0.015246 0.0104839 0.00756228 -0.0141813 0.00211864 -0.01572 -0.0183258 -0.0101449 -0.00942623 0.00283019 -0.0220395 -0.0110656 0.0177273 -0.00392562 -0.00286885 0.0105556 0.000824176 0.00595238 0.0227431 0.00271084 0.00772727 0.0148438 -0.00722222 -0.0197368 0.0016129 0.0165254 0.00875 -0.0201613
internal_weight=1408 839 569 155 281 684 59 625 442 138 183 212 304 61 110 121 122 90 91 63 288 83 55 64 45 76 62 59 40 62
internal_count=1408 839 569 155 281 684 59 625 442 138 183 212 304 61 110 121 122 90 91 63 288 83 55 64 45 76 62 59 40 62
is_linear=0
shrinkage=0.05


Tree=23
num_leaves=31
num_cat=0
split_feature=1 7 17 17 6 4 10 9 13 12 1 13 13 13 7 12 13 2 13 16 1 5 5 5 4 1 10 16 7 4
split_gain=79.177 32.2449 13.96 10.4063 7.51114 6.62119 5.83088 5.48978 5.08038 5.34553 4.93835 4.20723 5.63187 8.16376 3.13922 2.64548 2.15051 2.80682 1.991 1.70898 1.52179 1.50298 1.31072 1.12355 1.44832 1.3724 1.05947 0.938496 0.809889 0.640244
threshold=70.500000000000014 2.404853701500715 -0.37940952255126015 -0.37940952255126015 43.875000000000007 93.500000000000014 16.416666666666668 1.2431631210098228 4.5000000000000009 11.500000000000002 37.500000000000007 3.5000000000000004 4.5000000000000009 5.5000000000000009 3.302132206207633 16.500000000000004 5.5000000000000009 32.500000000000007 1.0000000180025095e-35 -0.37940952255126059 62.500000000000007 14.250000000000002 8.5000000000000018 67.500000000000014 56.500000000000007 62.500000000000007 87.552083333333343 -0.91597561503675329 1.0327955589888307 47.750000000000007
decision_type=2 2 2 2 2 2 2 2 2 2 2 2 2 2 2 2 2 2 2 2 2 2 2 2 2 2 2 2 2 2
left_child=1 4 29 5 6 11 7 -1 9 -6 14 26 -13 -14 22 -9 -8 -18 19 -5 -10 -17 -4 24 -11 -25 28 -12 -2 -3
right_child=3 2 10 18 8 -7 16 15 20 23 27 12 13 -15 -16 21 17 -19 -20 -21 -22 -23 -24 25 -26 -27 -28 -29 -30 -31
leaf_value=-0.50634199262368773 -0.021898417168118203 -0.84155435237523568 0.018359762641411238 0.036504159845578248 -0.099654809091970442 0.15615534529772007 -0.74680324225252281 -0.19489276032649772 -0.12803859451686428 0.010263001853946819 0.10751170331484801 0.18314639638058453 -0.062795901233483775 0.1488882278403251 0.41270177336984237 -0.099347884874680048 0.0088485181513860318 -0.2209003274129108 0.74865977357549918 0.45014586732549944 -0.026352611543459761 0.11226198502048793 -0.20309625846565177 0.032466472618814815 -0.011283969548738428 0.030510453414559893 0.026397464811838845 0.60358260600652303 -0.0022326007811482641 -0.32585308960011156
leaf_weight=61 34 21 30 34 38 63 237 32 46 20 25 41 25 38 36 31 21 34 212 23 26 30 27 24 31 29 26 70 23 20
leaf_count=61 34 21 30 34 38 63 237 32 46 20 25 41 25 38 36 31 21 34 212 23 26 30 27 24 31 29 26 70 23 20
internal_value=0.000426136 -0.0086333 0.00753275 0.0159441 -0.0142424 0.0086 -0.0179372 -0.0100649 -0.00654206 -0.00105634 0.0132979 0.00387701 0.0105769 0.00119048 0.00510753 -0.00241935 -0.022089 -0.0131818 0.0227695 0.0144737 -0.0173611 0.00368852 -0.00219298 0.00480769 -0.000490196 0.00990566 -0.00451807 0.0213158 -0.00833333 -0.0189024
internal_weight=1408 889 229 519 660 250 446 154 214 142 188 187 104 63 93 93 292 55 269 57 72 61 57 104 51 53 83 95 57 41
internal_count=1408 889 229 519 660 250 446 154 214 142 188 187 104 63 93 93 292 55 269 57 72 61 57 104 51 53 83 95 57 41
is_linear=0
shrinkage=0.05


Tree=24
num_leaves=31
num_cat=0
split_feature=0 17 0 5 7 6 13 16 17 13 8 16 5 7 5 13 8 16 8 13 13 3 11 10 1 2 7 0 7 11
split_gain=76.68 32.4381 17.6882 15.9399 10.7553 5.50331 6.33421 4.09607 3.82423 3.43536 7.66943 3.34044 2.96553 2.36221 2.05884 1.60911 1.92998 1.59216 1.5783 2.10801 2.80127 1.53529 3.19816 1.96376 1.45974 1.2 1.12201 1.04131 0.972222 0.692726
threshold=41.250000000000007 1.0000000180025095e-35 87.250000000000014 20.250000000000004 0.98319208026777016 71.416666666666671 4.5000000000000009 0.37940952255126054 -0.37940952255126015 5.5000000000000009 32.208333333333336 0.12940952255126059 5.5000000000000009 2.9495762407511465 14.250000000000002 1.0000000180025095e-35 77.104166666666671 0.12940952255126059 78.916666666666671 4.5000000000000009 1.0000000180025095e-35 51.750000000000007 4.8010212773335841 65.020833333333343 2.2500000000000004 73.500000000000014 1.0954451150095914 50.500000000000007 0.821583836250663 3.7757569373864794
decision_type=2 2 2 2 2 2 2 2 2 2 2 2 2 2 2 2 2 2 2 2 2 2 2 2 2 2 2 2 2 2
left_child=3 2 5 4 24 6 11 25 -6 -5 -11 21 -10 14 -14 16 -3 -8 -9 20 -20 -2 23 -23 -1 -7 -13 -17 -4 -22
right_child=1 15 28 9 8 7 17 18 12 10 -12 26 13 -15 -16 27 -18 -19 19 -21 29 22 -24 -25 -26 -27 -28 -29 -30 -31
leaf_value=-0.065985237690926554 0.029112926291477239 0.49379372268071847 0.072515943955412263 -0.77387262531753054 -0.46905085865344348 0.029840244543414409 -0.13948928287925391 -0.016281279807946449 -0.063758894118481638 0.68893261914143378 -0.25196634279394381 -0.094672068637371792 -0.026418727711196511 0.39029140268062934 0.13262703585558774 0.2357685314023808 0.03390842682328632 -0.022383202289231366 -0.0082247353382054918 -0.065135805352740314 0.062973718799873526 0.030437720338161257 -0.15771400335535546 -0.0006577006151939458 -0.79073765881157154 0.15973597724506378 -0.038087537654286054 0.74632332008037783 0.16122678489672426 0.053779613448113398
leaf_weight=24 31 48 20 253 26 20 53 24 40 20 42 20 31 37 21 22 28 20 22 20 31 31 21 35 76 40 21 241 70 20
leaf_count=24 31 48 20 253 26 20 53 24 40 20 42 20 31 37 21 22 28 20 22 20 31 31 21 35 76 40 21 241 70 20
internal_value=0.000639205 0.0102625 0.00215431 -0.0135088 -0.00421569 -0.00226161 -0.00732759 0.00437853 0.00403226 -0.0210317 -0.0104839 -0.00172956 0.00755814 0.0126404 0.00576923 0.0221976 0.0157895 -0.0195205 -0.00106838 0.00188172 0.00582192 0.00254237 -0.000862069 0.00454545 -0.017 0.015 -0.0140244 0.0240494 0.0222222 0.0122549
internal_weight=1408 838 499 570 255 409 232 177 155 315 62 159 129 89 52 339 76 73 117 93 73 118 87 66 100 60 41 263 90 51
internal_count=1408 838 499 570 255 409 232 177 155 315 62 159 129 89 52 339 76 73 117 93 73 118 87 66 100 60 41 263 90 51
is_linear=0
shrinkage=0.05


Tree=25
num_leaves=31
num_cat=0
split_feature=0 9 17 17 0 13 9 0 10 13 13 13 6 13 16 13 17 13 13 9 10 8 10 1 16 9 1 9 9 0
split_gain=80.9853 35.6383 10.3749 9.33423 8.72202 8.62326 5.80992 4.52358 4.93357 9.8331 3.33787 4.36444 3.36111 3.18357 3.30112 2.91731 2.91212 2.87907 2.78114 2.68892 2.6467 1.63588 1.63231 1.52547 1.33796 1.16255 0.940696 1.36095 2.1976 0.857143
threshold=69.500000000000014 4.9328823244138311 -0.5 0.78656609248549303 36.250000000000007 3.5000000000000004 1.502205292485572 41.250000000000007 17.562500000000004 3.5000000000000004 4.5000000000000009 5.5000000000000009 87.750000000000014 1.0000000180025095e-35 -0.60355339059327362 5.5000000000000009 -0.12940952255126037 1.5000000000000002 5.5000000000000009 2.1672493389007301 34.104166666666679 6.791666666666667 52.562500000000007 76.500000000000014 -0.91597561503675329 1.3070250325565838 64.500000000000014 2.9949452365098215 2.3094010767569286 17.500000000000004
decision_type=2 2 2 2 2 2 2 2 2 2 2 2 2 2 2 2 2 2 2 2 2 2 2 2 2 2 2 2 2 2
left_child=1 3 5 7 16 19 -5 8 9 17 -7 12 -12 14 -4 22 -3 21 -10 -2 -20 -1 -9 -13 -6 -24 27 28 -27 -8
right_child=2 4 13 6 24 10 29 15 18 -11 11 23 -14 -15 -16 -17 -18 -19 20 -21 -22 -23 25 -25 -26 26 -28 -29 -30 -31
leaf_value=0.030250116411014716 -0.031248088747418735 -0.71315444736598654 -0.0022656088615882197 -0.25972302965492639 0.16182050442775697 0.17512907324544749 0.074039383890560015 0.0082942054466755618 -0.75689948763120718 -0.99644361101583534 -0.066000730407502317 0.066241361530903653 0.18873415675674821 0.65108777907635873 0.32227070505419314 -0.098672416363886309 0.024902208674363283 0.14161990267521443 0.24331444790404808 0.0025733314530349107 -0.17748590205295864 -0.33583530491886382 0.024444345718073281 0.20688279385974084 0.47497654792272215 -0.06797062794685936 -0.099000924276785807 -0.24151664196312944 0.027657279976903482 0.89028129390987021
leaf_weight=23 47 22 29 30 36 46 21 21 244 87 25 20 20 235 52 38 33 22 20 22 39 22 20 33 72 48 34 35 33 21
leaf_count=23 47 22 29 30 36 46 21 21 244 87 25 20 20 235 52 38 33 22 20 22 39 22 20 33 72 48 34 35 33 21
internal_value=-0.000137931 -0.00909338 0.0154537 -0.0136544 0.0121166 0.00692488 0.00347222 -0.0154519 -0.018326 -0.011039 0.0138889 0.00867347 -0.00277778 0.0212025 0.0126543 -0.00971616 -0.00409091 0.00335821 -0.0220297 -0.0076087 -0.0122881 -0.00388889 -0.00719895 0.0183962 0.0203704 -0.00882353 -0.0103333 -0.00818966 -0.00462963 0.0154762
internal_weight=1450 921 529 758 163 213 72 686 457 154 144 98 45 316 81 229 55 67 303 69 59 45 191 53 108 170 150 116 81 42
internal_count=1450 921 529 758 163 213 72 686 457 154 144 98 45 316 81 229 55 67 303 69 59 45 191 53 108 170 150 116 81 42
is_linear=0
shrinkage=0.05


Tree=26
num_leaves=31
num_cat=0
split_feature=1 17 8 5 9 8 13 13 5 17 13 11 7 13 13 1 6 11 13 4 7 9 11 5 1 9 2 9 10 5
split_gain=69.834 32.9094 15.5346 15.4251 9.23307 5.46143 7.4356 6.79786 5.10145 4.84356 3.75094 4.04849 3.70889 3.57342 8.38135 3.45493 3.4283 5.6714 3.22916 4.26374 2.44504 2.61728 2.29206 2.01902 2.00434 2.16312 1.5264 1.33333 1.27714 0.82672
threshold=40.500000000000007 1.0000000180025095e-35 92.458333333333357 23.500000000000004 1.2431631210098228 74.145833333333357 5.5000000000000009 4.5000000000000009 5.5000000000000009 -0.37940952255126015 5.5000000000000009 2.6957759288743914 3.1371430739899218 4.5000000000000009 3.5000000000000004 46.250000000000007 49.375000000000007 2.6957759288743914 1.0000000180025095e-35 78.500000000000014 1.0954451150104403 3.058767824801921 5.2660210464581825 74.500000000000014 12.500000000000002 3.6139460511464301 60.500000000000007 1.9411249793459018 88.322916666666671 89.500000000000014
decision_type=2 2 2 2 2 2 2 2 2 2 2 2 2 2 2 2 2 2 2 2 2 2 2 2 2 2 2 2 2 2
left_child=3 2 5 4 -1 7 13 16 -6 -10 -5 -12 24 14 28 -3 22 -18 19 -17 -19 26 -2 -9 27 -26 -22 -11 29 -7
right_child=1 15 -4 10 8 6 -8 23 9 12 11 -13 -14 -15 -16 18 17 20 -20 -21 21 -23 -24 -25 25 -27 -28 -29 -30 -31
leaf_value=-0.43899083343882633 0.02627441597805813 0.044889553340498982 0.17929744891891064 -0.77443202053042448 -0.77350902532192833 -0.013717411208876484 0.19127582744609983 -0.12758119791709674 -0.3599405933524718 0.12636457177805357 -0.57611237055159104 0.10228115359027719 0.37396594116359377 -0.06273769341055839 0.15603475614782847 0.48275180715514598 0.027795598488688001 -0.096324033805337106 0.69135622993888723 -0.0063811989121429491 0.028759211608385196 -0.039829646891057641 0.0016740688128896509 -0.015045797374460435 -0.61143606076081525 0.019807924986749548 -0.072432962463323133 0.070337414696032149 0.0053338821187139734 -0.016470970670212283
leaf_weight=71 21 28 66 231 47 27 35 61 37 28 26 32 33 29 32 58 33 42 246 30 24 20 24 28 21 20 23 21 35 21
leaf_count=71 21 28 66 231 47 27 35 61 37 28 26 32 33 29 32 58 33 42 246 30 24 20 24 28 21 20 23 21 35 21
internal_value=6.89655e-05 0.00886183 0.000815739 -0.0136243 -0.00521583 -0.00247253 0.00432961 -0.00688406 0.000120773 0.004375 -0.0217128 -0.0103448 0.00914634 -0.000694444 0.00326087 0.020442 -0.00147059 -0.00528169 0.0218563 0.0136364 -0.0107798 -0.00485075 0.0105556 -0.0182584 0.00388889 -0.00426829 0.00159574 0.0107143 -0.00512048 -0.0104167
internal_weight=1450 883 521 567 278 455 179 276 207 160 289 58 123 144 115 362 187 142 334 88 109 67 45 89 90 41 47 49 83 48
internal_count=1450 883 521 567 278 455 179 276 207 160 289 58 123 144 115 362 187 142 334 88 109 67 45 89 90 41 47 49 83 48
is_linear=0
shrinkage=0.05


Tree=27
num_leaves=31
num_cat=0
split_feature=0 9 11 0 5 9 0 12 13 6 13 9 4 13 13 5 13 12 11 11 9 11 12 11 13 10 13 0 11 13
split_gain=72.6045 18.1718 17.5485 14.753 7.07066 6.94783 6.07965 5.29513 5.5584 8.27147 6.30471 4.17509 4.0811 3.24217 9.00712 3.13328 3.10676 6.11603 2.76286 3.23291 3.40579 2.50078 2.0482 1.99387 1.90537 3.67745 1.68676 1.68111 1.16838 0.864595
threshold=50.500000000000007 4.819857452740421 5.6257642065205546 91.750000000000014 23.500000000000004 1.2431631210098228 36.250000000000007 21.500000000000004 3.5000000000000004 73.166666666666671 4.5000000000000009 2.4300828016511984 43.500000000000007 5.5000000000000009 4.5000000000000009 5.5000000000000009 3.5000000000000004 17.500000000000004 4.0928973184795945 2.8064040492363049 1.7816403745544724 2.9604880313154229 17.500000000000004 3.4827148213315477 5.5000000000000009 34.104166666666679 3.5000000000000004 61.250000000000007 4.1458902297459153 1.0000000180025095e-35
decision_type=2 2 2 2 2 2 2 2 2 2 2 2 2 2 2 2 2 2 2 2 2 2 2 2 2 2 2 2 2 2
left_child=1 4 3 7 5 -1 22 8 11 10 -10 21 24 14 -11 -7 17 -14 19 -17 -21 -2 -3 -12 -6 -26 27 -4 -23 -29
right_child=2 6 26 -5 12 15 -8 -9 9 13 23 -13 16 -15 -16 18 -18 -19 -20 20 -22 28 -24 -25 25 -27 -28 29 -30 -31
leaf_value=-0.41704129176688504 0.00094136824612149899 -0.55314818420658607 0.12238818131556979 0.30678841844194271 -0.75081412202530595 -0.78691237241134682 0.26756570356376946 0.85678841844194276 0.026405818564253638 0.14706628470558486 -0.18450712774703942 0.021553210553777548 0.024960695179155223 0.18717634761544702 -0.059600808740030688 0.12077498236569079 -0.14741772311073795 -0.34993627665212518 0.099660190238167357 -0.79650606711734262 0.00066595850235593454 -0.046612898945861764 0.046530709669366392 -0.021039306531447012 0.22603466782933188 -0.23446299616589528 0.64188495362559628 0.037901670773152318 -0.010549830304340979 0.72474557379580029
leaf_weight=71 27 26 30 89 208 23 44 37 39 34 32 44 37 46 29 27 47 21 27 25 39 83 33 31 20 31 143 33 28 46
leaf_count=71 27 26 30 89 208 23 44 37 39 34 32 44 37 46 29 27 47 21 27 25 39 83 33 31 20 31 143 33 28 46
internal_value=0.000103448 -0.0118189 0.0106031 0.00534682 -0.0152778 -0.00801887 0.00752427 0.00151163 -0.00019084 0.00533175 -0.00490196 -0.00659341 -0.0195055 0.0149083 0.00753968 -0.00159574 -0.0111905 -0.00344828 0.00169492 -0.00247253 -0.00859375 -0.0108696 -0.0029661 -0.0146825 -0.0228764 -0.0142157 0.0214286 0.0167431 -0.0141892 0.0205696
internal_weight=1450 679 771 519 576 212 103 430 393 211 102 182 364 109 63 141 105 58 118 91 64 138 59 63 259 51 252 109 111 79
internal_count=1450 679 771 519 576 212 103 430 393 211 102 182 364 109 63 141 105 58 118 91 64 138 59 63 259 51 252 109 111 79
is_linear=0
shrinkage=0.05


Tree=28
num_leaves=31
num_cat=0
split_feature=0 17 2 10 7 2 13 0 3 13 4 13 11 7 11 11 3 17 10 12 7 13 10 5 5 13 13 11 11 11
split_gain=71.5829 34.1546 15.4066 13.8962 5.73963 5.30962 5.76008 4.01846 4.84848 4.00625 5.63298 3.06818 4.00079 4.05409 2.95525 2.64294 2.29602 2.22099 2.20969 1.93653 1.77912 1.74727 3.63 1.66591 1.63943 1.56754 5.07246 1.36756 2.15427 1.21112
threshold=36.250000000000007 1.0000000180025095e-35 73.500000000000014 17.562500000000004 0.83666002653026073 92.500000000000014 5.5000000000000009 46.250000000000007 36.750000000000007 1.0000000180025095e-35 78.500000000000014 4.5000000000000009 2.5867204936970221 1.0954451150104403 2.9769647026093216 3.3077362304531976 46.250000000000007 -0.37940952255126015 11.895833333333334 13.500000000000002 2.4511807564695505 5.5000000000000009 34.104166666666679 62.500000000000007 74.500000000000014 3.5000000000000004 4.5000000000000009 2.5047040453059837 2.9769647026093216 2.9915339480471048
decision_type=2 2 2 2 2 2 2 2 2 2 2 2 2 2 2 2 2 2 2 2 2 2 2 2 2 2 2 2 2 2
left_child=3 2 11 4 27 6 14 8 -3 10 -9 12 -2 19 -4 -16 -15 -6 29 -14 -20 -5 -23 -18 -13 -17 -27 -1 -29 -19
right_child=1 7 5 21 17 -7 -8 9 -10 -11 -12 24 13 16 15 25 23 18 20 -21 -22 22 -24 -25 -26 26 -28 28 -30 -31
leaf_value=-0.31140817416071959 0.032650465377308716 0.30028832113829868 0.056452461333317674 -0.71327341592404059 -0.38391614390510614 0.25429355418461413 0.17254567845939484 0.41241319217709355 -0.27903665859820198 0.6205511397521527 -0.01158794272702437 -0.099316676490160571 -0.087697960173918343 0.040139546597470148 -0.022889450413507009 -0.0034572535183997389 -0.13260138498511972 -0.16390817504466249 0.006657770173517541 -0.043288498791869939 0.15758359917491518 0.21473293443786529 -0.24161653131031591 0.00053630801219810569 -0.0056357362415369039 0.14209077199435924 -0.027354360997090765 0.01603362676883844 -0.5643509496940361 0.055762262292097908
leaf_weight=34 30 24 23 225 28 47 38 59 20 249 30 69 57 23 31 54 27 32 22 22 21 20 30 51 29 25 21 20 45 44
leaf_count=34 30 24 23 225 28 47 38 59 20 249 30 69 57 23 31 54 27 32 22 22 21 20 30 51 29 25 21 20 45 44
internal_value=0.000103448 0.00842304 0.000411335 -0.0147313 -0.00609756 0.00993724 0.00625 0.0198953 0.00568182 0.0217456 0.0126404 -0.00698052 -0.00357143 -0.00638889 0.00194805 -0.000954198 0.000247525 0.000170068 0.00315126 -0.0148734 0.0122093 -0.0224545 -0.014 -0.00384615 -0.0142857 0.003 0.00978261 -0.015404 -0.0111538 -0.00197368
internal_weight=1450 929 547 521 246 239 192 382 44 338 89 308 210 180 154 131 101 147 119 79 43 275 50 78 98 100 46 99 65 76
internal_count=1450 929 547 521 246 239 192 382 44 338 89 308 210 180 154 131 101 147 119 79 43 275 50 78 98 100 46 99 65 76
is_linear=0
shrinkage=0.05


Tree=29
num_leaves=31
num_cat=0
split_feature=0 9 17 3 5 9 4 13 0 13 13 16 0 8 13 17 5 13 16 4 16 7 4 9 0 11 13 5 16 11
split_gain=66.4124 21.1457 20.5609 10.2698 6.86056 6.91517 6.59872 5.88787 5.78139 5.41793 4.78089 4.4709 5.91383 4.14615 7.78852 3.71212 3.34803 3.11699 6.90577 2.98295 2.93087 2.38643 2.77535 2.26242 2.14201 1.96 1.80384 3.38936 1.72042 1.21034
threshold=57.250000000000007 4.9328823244138311 1.0000000180025095e-35 92.500000000000014 23.500000000000004 1.2431631210098228 41.250000000000007 1.0000000180025095e-35 36.250000000000007 3.5000000000000004 4.5000000000000009 -0.37940952255126059 74.500000000000014 74.145833333333357 5.5000000000000009 -0.12940952255126037 5.5000000000000009 3.5000000000000004 -0.5 70.500000000000014 0.78656609248549325 2.0655911179791455 15.500000000000002 2.5368486443362559 7.2500000000000009 3.3220824619594329 5.5000000000000009 35.500000000000007 -0.25881904510252113 4.4719334080235873
decision_type=2 2 2 2 2 2 2 2 2 2 2 2 2 2 2 2 2 2 2 2 2 2 2 2 2 2 2 2 2 2
left_child=1 4 3 9 5 -1 26 11 15 20 19 12 -4 25 -15 -3 -7 18 -8 -11 23 22 24 -2 -18 -12 -6 -28 -20 -19
right_child=2 8 7 -5 6 16 17 -9 -10 10 13 -13 -14 14 -16 -17 21 29 28 -21 -22 -23 -24 -25 -26 -27 27 -29 -30 -31
leaf_value=-0.39699090851698265 -0.044644438656051125 -0.59451175904880504 0.22741039081086037 0.14450722838440486 -0.69906429174610452 -0.77738900958717816 -0.2986190186374536 0.59366661377305552 0.26143458363001176 0.010256804503278972 -0.14664994855646649 0.79077357372372925 -0.018492512936171223 -0.055439296258923326 0.16391839453642484 0.066263055265474699 -0.023596024025558295 -0.079003066533823232 0.028109907514622279 0.13440728152106482 0.010025830699282779 0.080645253483052404 -0.6156696022821051 0.0021230322528470679 0.2100609900614078 0.0038976282689636935 0.081667783844390135 -0.20261885789563153 -0.00053671429627328855 -0.22311949924995195
leaf_weight=71 94 22 20 61 200 25 25 229 61 22 25 30 34 29 36 33 42 39 24 42 33 36 23 32 20 20 21 30 35 36
leaf_count=71 94 22 20 61 200 25 25 229 61 22 25 30 34 29 36 33 42 39 24 42 33 36 23 32 20 20 21 30 35 36
internal_value=0.000310345 -0.0101279 0.0112801 0.0036802 -0.013756 -0.00656682 -0.017561 0.0208466 0.00948276 0.000225225 0.00632184 0.00952381 0.000925926 0 0.00807692 -0.00227273 -0.000342466 -0.00959119 -0.00297619 0.0171875 -0.00644654 0.00309917 -0.00147059 -0.00992063 0.00403226 -0.0116667 -0.0226096 -0.0142157 0.00635593 -0.017
internal_weight=1450 743 707 394 627 217 410 313 116 333 174 84 54 110 65 55 146 159 84 64 159 121 85 126 62 45 251 51 59 75
internal_count=1450 743 707 394 627 217 410 313 116 333 174 84 54 110 65 55 146 159 84 64 159 121 85 126 62 45 251 51 59 75
is_linear=0
shrinkage=0.05


Tree=30
num_leaves=31
num_cat=0
split_feature=0 9 0 13 1 17 9 13 17 13 1 3 4 9 16 13 2 12 17 5 13 12 16 11 11 13 13 8 11 11
split_gain=72.5583 24.5708 10.6882 9.0435 6.8626 6.26696 5.12174 4.27852 4.99936 5.60049 5.53621 4.11997 7.62216 4.95042 2.39045 2.12588 6.42069 1.8589 1.72145 1.87208 1.49082 3.01496 4.60891 1.84216 1.84677 1.83478 1.41569 1.86667 1.39003 1.30827
threshold=66.250000000000014 4.819857452740421 91.250000000000014 3.5000000000000004 36.250000000000007 0.91597561503675351 2.2746961168986704 4.5000000000000009 0.1294095225512602 5.5000000000000009 74.500000000000014 40.500000000000007 16.250000000000004 1.3026778945553954 -0.91597561503675329 5.5000000000000009 31.500000000000004 16.500000000000004 -0.12940952255126037 5.5000000000000009 3.5000000000000004 11.500000000000002 -0.60355339059327362 4.5376842415119834 3.9735309515688209 4.5000000000000009 1.5000000000000002 9.8958333333333339 3.1781345014119577 4.8010212773335841
decision_type=2 2 2 2 2 2 2 2 2 2 2 2 2 2 2 2 2 2 2 2 2 2 2 2 2 2 2 2 2 2
left_child=1 5 3 6 18 11 28 -5 9 -9 -11 12 13 -1 -6 -14 -17 -15 -3 -20 21 -13 -23 24 25 -22 -19 -28 -2 -24
right_child=2 4 -4 7 14 -7 -8 8 -10 10 -12 20 15 17 -16 16 -18 26 19 -21 23 22 29 -25 -26 -27 27 -29 -30 -31
leaf_value=-0.49067282231716369 0.00198326017111512 -0.49131039469780763 0.34460302681699706 0.14722897305467236 0.12518878407616185 0.15726454891396779 0.064721509610992461 -0.018130020884964182 0.71398328308440284 -0.035299568315178574 0.15974046015687904 -0.064275262860671492 -0.60045482715879972 -0.6344277501689124 0.32968318004027425 0.64008439465217082 -0.37345339844918862 -0.34171275355392583 -0.07650968186298962 0.27909991641932985 -0.0016323614889358852 -0.20415747117015323 0.030506095657171883 -0.21196352428745444 0.011817560326469058 -0.15944085259268911 -0.0039512587401787872 0.22265297562020436 -0.01875220847909205 -0.00050813602561561311
leaf_weight=60 50 25 169 90 32 37 78 34 43 20 38 29 225 32 55 20 38 20 20 22 26 23 36 34 20 41 28 20 61 25
leaf_count=60 50 25 169 90 32 37 78 34 43 20 38 29 225 32 55 20 38 20 20 22 26 23 36 34 20 41 28 20 61 25
internal_value=0.000465196 -0.00869816 0.0141081 0.00978261 0.00941558 -0.012605 0.00171958 0.0165556 0.0109259 0.00434783 0.0137931 -0.0137001 -0.016535 -0.0078125 0.0186782 -0.0214664 -0.012931 -0.001 -0.00261194 0.00357143 -0.00833333 -0.00420354 0.000595238 -0.0121901 -0.00833333 -0.0123134 0.00367647 0.00833333 -0.00518018 0.00778689
internal_weight=1451 868 583 414 154 714 189 225 135 92 58 677 443 160 87 283 58 100 67 42 234 113 84 121 87 67 68 48 111 61
internal_count=1451 868 583 414 154 714 189 225 135 92 58 677 443 160 87 283 58 100 67 42 234 113 84 121 87 67 68 48 111 61
is_linear=0
shrinkage=0.05


Tree=31
num_leaves=31
num_cat=0
split_feature=0 7 0 13 12 3 10 9 7 13 0 12 12 13 7 1 7 13 12 9 7 13 16 3 7 1 3 6 10 2
split_gain=74.0236 24.7757 9.76612 8.67324 7.10292 6.15636 7.91323 4.44172 4.05974 4.0563 4.09735 3.90326 4.58908 3.50635 4.55087 3.02931 3.82966 1.92039 1.43179 2.60908 1.32181 2.44352 2.23457 2.77428 1.72693 1.42141 1.19431 1.18376 1.00867 1.56385
threshold=66.250000000000014 2.2949219304069088 91.250000000000014 3.5000000000000004 17.500000000000004 40.500000000000007 14.29166666666667 1.4770978917522846 1.2812754062696432 4.5000000000000009 72.500000000000014 11.500000000000002 16.500000000000004 5.5000000000000009 1.1690451944396716 39.250000000000007 4.3684270647663608 3.5000000000000004 18.500000000000004 1.5642792899462241 1.0327955589906854 4.5000000000000009 -0.5 60.500000000000007 1.5491933384807217 59.000000000000007 3.5000000000000004 81.750000000000014 78.875000000000014 72.500000000000014
decision_type=2 2 2 2 2 2 2 2 2 2 2 2 2 2 2 2 2 2 2 2 2 2 2 2 2 2 2 2 2 2
left_child=1 5 3 8 11 6 7 26 28 -5 -11 -3 -13 14 -12 16 -6 -9 -8 -20 25 22 -22 -24 -23 -7 -1 -10 29 -2
right_child=2 4 -4 9 15 20 18 17 27 10 13 12 -14 -15 -16 -17 -18 -19 19 -21 21 24 23 -25 -26 -27 -28 -29 -30 -31
leaf_value=-0.060298488956708418 -0.061693409866728999 0.081048633324648386 0.32737287547614713 0.13986752440193903 -0.0056447609040359836 -0.19496981151282444 -0.61263378918259337 0.089939990919780763 0.14312744860635149 -0.0040106859260179211 -0.048236956863430082 -0.49428620130614509 0.031314582334357868 0.17372382219385898 0.5364418166169681 0.43925060148502199 0.45866005136987731 -0.70218051182132268 -0.24418360229963235 -0.39351750125226986 -0.17509781627910109 -0.02106957795733937 0.02709524878848555 -0.032596045396951115 -0.11708087057749772 -0.013303217783541399 -0.50282499913334211 0.028530958933847474 -0.015062073693390944 0.036690471329603368
leaf_weight=20 22 20 169 90 48 32 206 28 49 30 20 37 36 63 22 56 20 33 33 54 21 30 47 20 31 43 53 27 71 20
leaf_count=20 22 20 169 90 48 32 206 28 49 30 20 37 36 63 22 56 20 33 33 54 21 30 47 20 31 43 53 27 71 20
internal_value=0.000499655 -0.00875576 0.0142796 0.0101449 0.00587558 -0.0136329 -0.0171546 -0.00708955 0.00224868 0.0167778 0.0112963 -0.00456989 -0.00993151 0.0159524 0.0047619 0.0137097 0.00661765 0.00286885 -0.0217577 -0.0163793 -0.00691964 -0.00419463 0.00113636 0.00559701 -0.0118852 -0.0123333 -0.015411 0.0111842 -0.00376106 0.00238095
internal_weight=1451 868 583 414 217 651 427 134 189 225 135 93 73 105 42 124 68 61 293 87 224 149 88 67 61 75 73 76 113 42
internal_count=1451 868 583 414 217 651 427 134 189 225 135 93 73 105 42 124 68 61 293 87 224 149 88 67 61 75 73 76 113 42
is_linear=0
shrinkage=0.05


Tree=32
num_leaves=31
num_cat=0
split_feature=0 7 0 17 13 3 10 13 17 13 3 9 9 7 13 11 4 16 11 10 7 9 12 11 11 3 7 3 0 2
split_gain=66.3131 23.2396 11.3289 11.2224 7.21393 5.85207 7.40369 5.66289 6.5522 8.76803 5.37727 4.84899 3.75456 3.52367 2.2183 4.31065 1.86112 1.65671 1.60743 1.41421 1.28721 1.3492 1.25744 2.39029 2.93403 2.75135 1.56385 1.19431 0.981818 0.921951
threshold=66.250000000000014 2.2949219304069088 90.500000000000014 -0.37940952255126015 3.5000000000000004 40.500000000000007 14.29166666666667 4.5000000000000009 0.1294095225512602 5.5000000000000009 75.250000000000014 1.4770978917522846 2.2746961168986704 3.7798805888502947 5.5000000000000009 3.2008540282134255 8.5000000000000018 -0.37940952255126059 3.239670106021912 34.187500000000007 0.54772255748512388 1.7816403745534484 12.500000000000002 4.7016615109777513 3.9571981169264396 47.750000000000007 1.5491933384856322 3.5000000000000004 75.250000000000014 32.500000000000007
decision_type=2 2 2 2 2 2 2 2 2 2 2 2 2 2 2 2 2 2 2 2 2 2 2 2 2 2 2 2 2 2
left_child=1 5 4 29 12 6 11 -6 9 -9 -11 27 20 16 -8 -16 -5 19 -13 -18 -2 28 -7 24 -24 -25 -27 -1 -22 -3
right_child=2 3 -4 13 7 22 14 8 -10 10 -12 18 -14 -15 15 -17 17 -19 -20 -21 21 -23 23 25 -26 26 -28 -29 -30 -31
leaf_value=-0.057283564508872953 -0.049583863872727466 -0.46957189124083776 0.29713931472892841 -0.025786260746064119 0.13726005412773432 -0.060395788251189589 -0.53980039634173005 -0.023334234101285035 0.6697445260626772 -0.037777418306115432 0.14287612682159009 -0.27706023268605801 0.059139118275368219 0.4474755705014154 -0.46406747337383047 0.0095136140203564423 0.11736361575563592 0.28779182477917792 0.085442991373791702 -0.045258824296195856 0.022404114563696356 -0.01117708047328172 -0.045169673949342487 -0.25075719771639859 0.026913473221641837 0.0084850817964239773 -0.038641319636039208 -0.47768374917667505 -0.0015411064324148073 -0.2281755967552572
leaf_weight=20 24 21 181 27 86 84 241 34 41 20 35 33 77 48 31 21 49 30 28 22 22 30 40 26 32 22 20 53 33 20
leaf_count=20 24 21 181 27 86 84 241 34 41 20 35 33 77 48 31 21 49 30 28 22 22 30 40 26 32 22 20 53 33 20
internal_value=0.000465196 -0.00829493 0.0135077 0.00587558 0.00883085 -0.0130184 -0.016452 0.0150463 0.00846154 0.000842697 0.0131818 -0.00671642 0.0016129 0.0113636 -0.0209044 -0.0115385 0.00703125 0.0101485 0.00368852 0.00598592 -0.0043578 -0.00147059 -0.00647321 -0.00357143 0.00277778 -0.0102941 -0.00238095 -0.015411 0.00318182 -0.0176829
internal_weight=1451 868 583 217 402 651 427 216 130 89 55 134 186 176 293 52 128 101 61 71 109 85 224 140 72 68 42 73 55 41
internal_count=1451 868 583 217 402 651 427 216 130 89 55 134 186 176 293 52 128 101 61 71 109 85 224 140 72 68 42 73 55 41
is_linear=0
shrinkage=0.05


Tree=33
num_leaves=31
num_cat=0
split_feature=1 9 1 17 13 1 3 10 9 17 13 13 10 13 2 1 11 13 12 11 11 13 12 4 5 17 12 9 9 5
split_gain=59.7761 20.054 10.5911 8.204 6.79092 6.09349 5.40336 9.53692 5.35715 4.29295 4.46774 10.4958 4.05081 3.44734 5.05408 3.14815 3.025 1.84026 2.91834 3.9395 2.24323 1.79346 4.15423 1.74361 1.73482 2.65947 1.55699 1.54578 1.427 1.34617
threshold=69.500000000000014 4.819857452740421 91.250000000000014 0.91597561503675351 3.5000000000000004 36.250000000000007 40.500000000000007 17.562500000000004 1.3026778945553954 0.1294095225512602 4.5000000000000009 5.5000000000000009 77.031250000000014 5.5000000000000009 31.500000000000004 75.250000000000014 3.2609865030096841 4.5000000000000009 11.500000000000002 5.3156693383221478 3.4827148213315477 3.5000000000000004 17.500000000000004 57.250000000000007 5.5000000000000009 0.37940952255126026 19.500000000000004 1.7056057308439292 2.6017160002315376 56.500000000000007
decision_type=2 2 2 2 2 2 2 2 2 2 2 2 2 2 2 2 2 2 2 2 2 2 2 2 2 2 2 2 2 2
left_child=1 3 4 6 12 24 7 8 -1 10 -6 -12 29 -9 -15 -13 -5 18 -8 23 -19 -10 -23 -20 -3 -26 -7 -25 -22 -2
right_child=2 5 -4 16 9 26 17 13 21 -11 11 15 -14 14 -16 -17 -18 20 19 -21 28 22 -24 27 25 -27 -28 -29 -30 -31
leaf_value=-0.4014095939697036 0.015699281048033597 -0.45234418747291483 0.28228234899248222 -0.0025600073965179604 0.10328453088957019 0.13823269410192793 -0.054495036223717014 -0.52288656448221482 0.040029189123270116 0.58983590510853789 -0.039715594679515576 0.0019102226193881578 -0.0081688033942477044 0.61981367433352619 -0.3147868312638048 0.1354809110427688 0.70701954627863417 -0.17841601228074425 0.026203736743408257 -0.17597144607490967 -0.0020939222738576291 -0.93260544176812799 0.093165299795591502 0.018206130114116627 -0.36415016628555819 0.25697946231119317 0.45760319778805969 -0.0071093768202409539 -0.32282784377106372 0.42078511709508248
leaf_weight=59 20 26 169 20 48 49 38 216 53 71 29 20 110 20 38 34 20 25 27 37 41 22 35 32 20 21 52 45 21 33
leaf_count=59 20 26 169 20 48 49 38 216 53 71 29 20 110 20 38 34 20 25 27 37 41 22 35 32 20 21 52 45 21 33
internal_value=0.000465196 -0.00727917 0.013764 -0.010781 0.0089726 0.00833333 -0.012024 -0.0154063 -0.00606509 0.015099 0.00973282 0.00271084 0.00138037 -0.0211679 -0.0103448 0.0157407 0.01125 -0.00639098 -0.00349162 -0.000177305 -0.0123563 0.000454545 -0.00570175 0.00480769 -0.00335821 0.00304878 0.0160891 0.000974026 -0.00725806 0.0127358
internal_weight=1451 917 534 749 365 168 709 443 169 202 131 83 163 274 58 54 40 266 179 141 87 110 57 104 67 41 101 77 62 53
internal_count=1451 917 534 749 365 168 709 443 169 202 131 83 163 274 58 54 40 266 179 141 87 110 57 104 67 41 101 77 62 53
is_linear=0
shrinkage=0.05


Tree=34
num_leaves=31
num_cat=0
split_feature=1 17 5 2 7 13 6 13 16 2 13 8 13 13 8 1 13 17 11 17 12 13 12 1 11 6 7 11 11 12
split_gain=53.2202 26.2505 13.7631 11.3777 6.07724 5.56413 5.6903 5.01142 6.60147 4.75502 4.5519 7.10217 4.12777 6.22352 3.24756 2.42956 6.37748 3.33827 3.11481 2.36567 2.41022 3.20504 6.88669 1.71952 1.46782 1.45 1.44098 1.41556 1.36111 1.22727
threshold=41.250000000000007 1.0000000180025095e-35 23.500000000000004 73.500000000000014 0.98319208026777016 5.5000000000000009 92.875000000000014 1.0000000180025095e-35 -0.60355339059327362 50.500000000000007 5.5000000000000009 30.458333333333339 4.5000000000000009 3.5000000000000004 4.166666666666667 51.750000000000007 3.5000000000000004 -0.9159756150367534 2.6957759288743914 -0.37940952255126015 18.500000000000004 2.5000000000000004 21.500000000000004 33.500000000000007 3.9782014725908796 35.625000000000007 0.98319208023748772 3.3729522645119525 2.0385754815678907 21.500000000000004
decision_type=2 2 2 2 2 2 2 2 2 2 2 2 2 2 2 2 2 2 2 2 2 2 2 2 2 2 2 2 2 2
left_child=2 3 4 15 14 6 12 8 -3 -9 23 -12 13 26 -1 16 -2 18 28 -6 -21 -22 -23 -4 -25 -13 -5 -20 -17 -16
right_child=1 7 10 5 19 -7 -8 9 -10 -11 11 25 -14 -15 29 17 -18 -19 27 20 21 22 -24 24 -26 -27 -28 -29 -30 -31
leaf_value=0.015383399012705291 0.025383493817412717 -0.01527540784646746 -0.58666604830053293 -0.019685736721616109 -0.33339859664235993 0.13010192651964303 0.074711988664457607 0.096117048053715598 0.6675525725064454 0.48848300654077337 0.62657100896349904 -0.32138051032688825 -0.016743837807829464 0.098392444178035998 -0.60320822204298352 -0.003457321345015885 -0.16345230030787514 -0.062873095355340788 -0.096479062436446494 0.28291930181561081 0.15145123103676622 -0.9155201707806917 0.12620549347950369 -0.25216757893084002 -0.26434278133103062 -0.01091987113018238 0.0042463260883359054 -0.0042030875831535752 0.033972903292375282 -0.11110523621760038
leaf_weight=27 34 40 184 35 28 49 46 27 45 222 20 29 29 39 66 20 31 81 25 50 28 27 34 26 24 20 53 65 25 22
leaf_count=27 34 40 184 35 28 49 46 27 45 222 20 29 29 39 66 20 31 81 25 50 28 27 34 26 24 20 53 65 25 22
internal_value=0.000155065 0.0080254 -0.0114957 0.00112782 -0.0035461 0.00886454 0.00519802 0.019012 0.00852941 0.0225904 -0.0188944 -0.0076087 0.000641026 0.00452756 -0.0123913 -0.00578292 0.00269231 -0.00833333 -0.00351852 0.00254491 0.00521583 0.000280899 -0.00614754 -0.0222222 -0.014 -0.0178571 -0.00284091 -0.00888889 0.00722222 -0.0170455
internal_weight=1451 866 585 532 282 251 202 334 85 249 303 69 156 127 115 281 65 216 135 167 139 89 61 234 50 49 88 90 45 88
internal_count=1451 866 585 532 282 251 202 334 85 249 303 69 156 127 115 281 65 216 135 167 139 89 61 234 50 49 88 90 45 88
is_linear=0
shrinkage=0.05


Tree=35
num_leaves=31
num_cat=0
split_feature=0 11 10 0 12 13 11 11 0 6 13 13 0 9 10 12 13 13 7 13 11 7 4 9 0 12 9 11 12 11
split_gain=48.2959 17.0345 13.5793 13.0604 6.70096 5.28004 6.16086 4.68426 4.61393 4.5388 6.9066 4.44373 3.20969 4.69243 3.0062 2.8931 2.75048 7.11767 2.48886 2.28708 2.78184 2.75029 2.83455 2.35872 2.00084 1.97463 1.96098 1.92471 1.83306 1.58614
threshold=36.250000000000007 6.4566550520268757 17.197916666666668 90.500000000000014 22.500000000000004 5.5000000000000009 3.1781345014119577 2.2650463091538167 33.500000000000007 73.166666666666671 5.5000000000000009 1.0000000180025095e-35 2.2500000000000004 1.2953674616048316 97.489583333333357 16.500000000000004 4.5000000000000009 3.5000000000000004 3.4375301853275206 1.0000000180025095e-35 5.2030327425283209 0.89442719099437484 69.500000000000014 2.3094010767569286 61.250000000000007 19.500000000000004 2.6053557891152499 2.8702305513104438 18.500000000000004 2.0144406207413343
decision_type=2 2 2 2 2 2 2 2 2 2 2 2 2 2 2 2 2 2 2 2 2 2 2 2 2 2 2 2 2 2
left_child=2 3 7 4 9 8 -7 -1 -4 19 16 -3 -9 -14 -5 -15 17 26 27 23 21 29 -23 -2 25 -13 -11 -17 -29 -21
right_child=1 11 5 14 -6 6 -8 12 -10 10 -12 24 13 15 -16 18 -18 -19 -20 20 -22 22 -24 -25 -26 -27 -28 28 -30 -31
leaf_value=-0.18824986925716819 -0.036021971352864668 0.041159198923618592 -0.54039822411794469 0.22054675624705988 0.75610995403170878 -0.25043455547322857 0.30860148449041525 0.087609678955243284 -0.11024986189214384 -0.010714275236601623 0.12326604823252084 0.075837847475188805 -0.88441878937950236 -0.27927272813916243 0.02097638923123455 0.23446218593478535 -0.050387512880218394 0.096964192985991113 0.35926842183350233 -0.010355707920259506 -0.21562557796474185 -0.011792276008951675 -0.076537085669984253 0.026180914233579957 0.47698925445663676 0.46868728606446552 0.046692076126499421 0.15546532151986092 -0.22708902645656759 0.032274258127756639
leaf_weight=44 32 43 212 100 26 35 22 20 22 98 42 40 22 37 21 21 28 36 23 22 25 118 37 23 145 27 21 25 44 37
leaf_count=44 32 43 212 100 26 35 22 20 22 98 42 40 22 37 21 21 28 36 23 22 25 118 37 23 145 27 21 25 44 37
internal_value=0.000828729 0.00773616 -0.0112429 0.00352853 0.000229358 -0.0184708 -0.00482456 -0.00233051 -0.0217949 -0.00101156 0.00433333 0.0187255 0.00104167 -0.00116279 0.0183884 0.002 0.000136612 0.00274194 0.00597345 -0.00510204 -0.00721757 -0.00537383 -0.00887097 0.00409091 0.0216981 0.0145522 -0.00315126 0.00222222 -0.00181159 0.00381356
internal_weight=1448 921 527 666 545 291 57 236 234 519 225 255 192 172 121 150 183 155 113 294 239 214 155 55 212 67 119 90 69 59
internal_count=1448 921 527 666 545 291 57 236 234 519 225 255 192 172 121 150 183 155 113 294 239 214 155 55 212 67 119 90 69 59
is_linear=0
shrinkage=0.05


Tree=36
num_leaves=31
num_cat=0
split_feature=1 11 4 1 12 5 6 13 13 8 9 13 13 13 5 1 9 6 16 13 6 7 6 5 11 12 1 12 1 12
split_gain=48.912 16.6325 13.5608 11.5183 6.31218 5.50538 5.05904 5.15715 4.83911 7.14559 4.5623 4.53626 5.4922 4.40919 4.13419 3.41274 2.35857 2.02657 2.00006 2.36056 5.25386 2.70679 2.17483 1.97644 2.60481 2.27167 1.94455 2.01765 1.78674 1.74951
threshold=36.250000000000007 6.4566550520268757 18.750000000000004 90.500000000000014 22.500000000000004 97.250000000000014 68.541666666666671 3.5000000000000004 5.5000000000000009 30.041666666666668 1.3026778945553954 4.5000000000000009 5.5000000000000009 1.0000000180025095e-35 23.500000000000004 75.250000000000014 2.6053557891146926 34.458333333333336 -0.91597561503675329 3.5000000000000004 57.375000000000007 1.0954451150104403 57.833333333333336 5.5000000000000009 4.1727846157540833 19.500000000000004 61.250000000000007 19.500000000000004 41.250000000000007 14.500000000000002
decision_type=2 2 2 2 2 2 2 2 2 2 2 2 2 2 2 2 2 2 2 2 2 2 2 2 2 2 2 2 2 2
left_child=2 3 10 4 6 -5 18 16 17 -10 -1 -9 -13 -3 23 -14 -8 -4 -2 20 28 -22 29 -12 25 -25 27 -15 -20 -21
right_child=1 13 8 5 -6 -7 7 11 9 -11 14 12 15 26 -16 -17 -18 -19 19 22 21 -23 -24 24 -26 -27 -28 -29 -30 -31
leaf_value=-0.19164951072501213 -0.18686447250818361 0.039101238977437447 -0.51085147832551281 0.18271674340346636 0.7418667887148942 -0.0024164356012764902 -0.0097334402533480364 0.098789726479913756 0.71176656666366067 -0.23353988845877646 -0.047370675335015378 -0.041816123150232802 -0.019923994143923984 0.072045955101429193 -0.72246961506654461 0.13226001743675084 0.054043682420569894 -0.26854517625938373 -0.088210235890743866 -0.24714580205355743 -0.11109476512586447 0.00013868249094493024 -0.0052497401349267392 -0.18680072515355645 0.17419858392313189 0.14805168259543003 0.45313979173380475 0.49736319714168964 0.024871868521901066 -0.010767719065326632
leaf_weight=73 22 43 184 100 25 24 123 49 20 37 38 34 20 40 24 34 23 21 20 34 24 23 55 42 48 39 141 28 33 27
leaf_count=73 22 43 184 100 25 24 123 49 20 37 38 34 20 40 24 34 23 21 20 34 24 23 55 42 48 39 141 28 33 27
internal_value=0.000759669 0.00770065 -0.0114068 0.00358209 0.000457875 0.0173387 -0.00071977 0.00379859 -0.0194656 -0.00657895 -0.00340909 0.0107664 0.00397727 0.0186508 0.00065445 0.0138889 -0.00273973 -0.0230488 -0.00609244 -0.00462963 0.001 -0.0111702 -0.00948276 0.00344311 0.00639535 0.000925926 0.0216507 0.0147059 0.0117925 -0.0159836
internal_weight=1448 922 526 670 546 124 521 283 262 57 264 137 88 252 191 54 146 205 238 216 100 47 116 167 129 81 209 68 53 61
internal_count=1448 922 526 670 546 124 521 283 262 57 264 137 88 252 191 54 146 205 238 216 100 47 116 167 129 81 209 68 53 61
is_linear=0
shrinkage=0.05


Tree=37
num_leaves=31
num_cat=0
split_feature=0 17 4 0 13 13 0 0 13 11 0 9 3 12 13 4 17 2 7 7 11 12 13 11 9 11 13 1 1 9
split_gain=51.3803 24.4444 12.2481 7.086 5.87224 5.62976 6.20756 5.53832 5.26601 5.35942 3.66244 3.60407 2.14732 3.03333 1.66259 2.45866 1.58574 4.57875 2.24575 1.7014 1.92001 1.46672 1.76332 2.3913 2.29167 1.82572 3.97804 4.73052 1.69866 1.35553
threshold=36.250000000000007 1.0000000180025095e-35 18.750000000000004 73.500000000000014 3.5000000000000004 1.0000000180025095e-35 46.250000000000007 73.500000000000014 5.5000000000000009 3.1781345014119577 33.500000000000007 1.3026778945553954 93.500000000000014 9.5000000000000018 2.5000000000000004 95.750000000000014 -0.37940952255126015 8.5000000000000018 2.9161833492503866 1.5491933384948282 2.8539319431683867 10.500000000000002 4.5000000000000009 3.9735309515688209 2.3828584745264267 2.6957759288743914 3.5000000000000004 52.500000000000007 65.500000000000014 2.1950357213891194
decision_type=2 2 2 2 2 2 2 2 2 2 2 2 2 2 2 2 2 2 2 2 2 2 2 2 2 2 2 2 2 2
left_child=2 3 11 21 14 7 -7 -3 10 -10 -4 -1 13 -6 15 -5 17 -13 19 20 -18 -2 25 -24 -25 28 27 29 -23 -27
right_child=1 5 8 4 12 6 -8 -9 9 -11 -12 16 -14 -15 -16 -17 18 -19 -20 -21 -22 22 23 24 -26 26 -28 -29 -30 -31
leaf_value=-0.18206703518876158 -0.023104155226481817 0.30999629560508563 -0.48660932326333345 -0.0038463587730433349 -0.0072247114981863099 0.012586889591425177 0.42358090623329336 -0.018524659349196781 -0.2262358332766283 0.25758308193271129 -0.22115443243186733 0.064176815608779234 0.15595056018022291 0.086927857547246398 -0.011124692634339794 0.041655288199145706 0.21533649250827447 -0.74418935392628205 0.19227265247433928 -0.040338102910340012 -0.40494612249134954 -0.0021377695579051447 -0.10938010474423764 0.011158432017193222 -0.026358020049944565 0.0074670270683723679 -0.16496829747528832 -0.037454271296514643 0.066216603555578499 0.026859435798976608
leaf_weight=73 38 46 189 53 21 33 253 49 35 22 20 24 37 70 36 21 21 28 50 42 23 21 46 20 24 23 21 58 23 28
leaf_count=73 38 46 189 53 21 33 253 49 35 22 20 24 37 70 36 21 21 28 50 42 23 21 46 20 24 23 21 58 23 28
internal_value=0.000828729 0.00795331 -0.0116224 0.00111111 0.00756303 0.0176509 0.0211538 0.00710526 -0.0191729 -0.00570175 -0.0228469 -0.0039272 0.0148438 0.0107143 -0.000909091 0.00337838 -0.000265957 -0.00769231 0.00257353 -0.00232558 0.00454545 -0.00397351 -0.00265152 -0.00833333 0 0.000287356 -0.00269231 0.00114679 0.00909091 0.0122549
internal_weight=1448 921 527 540 238 381 286 95 266 57 209 261 128 91 110 74 188 52 136 86 44 302 264 90 44 174 130 109 44 51
internal_count=1448 921 527 540 238 381 286 95 266 57 209 261 128 91 110 74 188 52 136 86 44 302 264 90 44 174 130 109 44 51
is_linear=0
shrinkage=0.05


Tree=38
num_leaves=31
num_cat=0
split_feature=1 17 10 1 13 13 13 13 10 13 6 11 6 9 3 12 1 2 12 13 4 13 11 11 9 2 9 9 7 13
split_gain=47.5982 23.5389 12.9214 8.07272 5.79431 6.03876 5.67891 4.97623 6.14227 4.80536 5.36055 3.99253 3.00805 3.64314 2.03118 3.1712 1.76733 1.64204 1.607 2.95681 2.5 2.40667 1.53704 3.04322 1.88301 2.02458 2.21023 1.48922 1.31217 1.5126
threshold=36.250000000000007 1.0000000180025095e-35 17.197916666666668 73.500000000000014 3.5000000000000004 2.5000000000000004 3.5000000000000004 5.5000000000000009 32.041666666666679 1.0000000180025095e-35 75.250000000000014 2.2650463091538167 3.4583333333333335 1.2953674616048316 93.500000000000014 9.5000000000000018 32.500000000000007 48.250000000000007 21.500000000000004 3.5000000000000004 8.5000000000000018 1.5000000000000002 2.6957759288743914 3.4827148213315477 1.6730902221349844 43.500000000000007 3.1813816871352283 5.0606173877091054 0.98319208024073046 2.5000000000000004
decision_type=2 2 2 2 2 2 2 2 2 2 2 2 2 2 2 2 2 2 2 2 2 2 2 2 2 2 2 2 2 2
left_child=2 3 11 22 5 9 28 16 -9 10 27 -1 -13 -14 15 -8 -4 -6 19 21 -21 -15 -2 -24 -25 -26 -27 -3 -5 -30
right_child=1 4 7 6 17 -7 14 8 -10 -11 -12 12 13 18 -16 -17 -18 -19 -20 20 -22 -23 23 24 25 26 -28 -29 29 -31
leaf_value=-0.16329298394400374 0.016322377581201763 0.54992269727158605 -0.45967801939197417 -0.014240287648496519 0.13228893260104754 -0.18969096778286182 -0.0068634759232772072 0.6632990842338421 -0.21055110237200625 0.48115578680881338 -0.017598426381736944 0.10055460852300371 -0.82151202261483869 -0.01945819102599522 0.14815303217121142 0.081672200388180738 -0.25056329030438151 0.39514971881109706 0.20153323161010947 0.036916934656134617 -0.80984695685468222 0.24746633107060845 -0.12142958615155575 -0.12389270141780227 0.016250429963001699 -0.0017583557798115379 -0.15671988260152397 0.055597186023404181 0.022468421028987606 -0.0046418301522859196
leaf_weight=44 59 31 201 40 26 20 21 20 37 62 44 22 22 50 37 73 30 176 35 20 20 25 36 21 32 118 33 20 45 28
leaf_count=44 59 31 201 40 26 20 21 20 37 62 44 22 22 50 37 73 30 176 35 20 20 25 36 21 32 118 33 20 45 28
internal_value=0.00107044 0.00791757 -0.0109316 0.00124309 0.0174802 0.0108757 0.0079918 -0.0180556 -0.00482456 0.014172 0.00710526 -0.00231092 0.000773196 -0.00145349 0.0150763 0.0111702 -0.0213203 0.0232673 0.00133333 -0.00152174 -0.0125 0.00433333 -0.00426421 -0.00604167 -0.00367647 -0.00204918 -0.0044702 0.0181373 -0.000221239 0.00376712
internal_weight=1448 922 526 543 379 177 244 288 57 157 95 238 194 172 131 94 231 202 150 115 40 75 299 240 204 183 151 51 113 73
internal_count=1448 922 526 543 379 177 244 288 57 157 95 238 194 172 131 94 231 202 150 115 40 75 299 240 204 183 151 51 113 73
is_linear=0
shrinkage=0.05


Tree=39
num_leaves=31
num_cat=0
split_feature=0 11 10 3 5 13 11 12 13 9 12 12 0 0 0 13 0 13 12 8 12 12 13 11 9 7 11 3 5 5
split_gain=47.4758 15.2334 13.6452 10.6356 6.01535 5.27413 5.56745 4.97491 4.44373 3.98981 3.98128 3.26816 3.11685 2.70376 2.65786 3.3865 2.00084 1.98682 2.44444 2.48485 1.97463 1.3639 1.77779 3.10444 1.53409 1.50165 2.70381 1.69866 1.32096 1.48761
